elements: [C, H, O]
E0: [0, 0, 0]
deltaSplineBins: 0.001
embeddings:
  0: {ndensity: 2, FS_parameters: [1, 1, 1, 0.5], npoti: FinnisSinclairShiftedScaled, rho_core_cutoff: 100000, drho_core_cutoff: 250}
  1: {ndensity: 2, FS_parameters: [1, 1, 1, 0.5], npoti: FinnisSinclairShiftedScaled, rho_core_cutoff: 100000, drho_core_cutoff: 250}
  2: {ndensity: 2, FS_parameters: [1, 1, 1, 0.5], npoti: FinnisSinclairShiftedScaled, rho_core_cutoff: 100000, drho_core_cutoff: 250}
bonds:
  [0, 0]: {nradmax: 3, lmax: 2, nradbasemax: 15, radbasename: ChebExpCos, radparameters: [5.25], radcoefficients: [[[0.99999999946162088, -3.6470770685193092e-11, -1.7021278146183225e-10, -3.2719226427043259e-10, -4.3054118902667655e-10, -4.6885218180605021e-10, -4.3029045434788253e-10, -3.3200330311148765e-10, -2.0408879768579713e-10, -9.2979633346120751e-11, -3.7713896115365967e-11, -6.7323365502513997e-11, -1.764619657899019e-10, -3.4353961300682583e-10, -5.0964039131263336e-10], [0.99999999946162088, -3.6470770685189376e-11, -1.7021278146184264e-10, -3.2719226427041868e-10, -4.3054118902672525e-10, -4.6885218180603966e-10, -4.3029045434789845e-10, -3.3200330311150838e-10, -2.0408879768578488e-10, -9.2979633346132331e-11, -3.771389611536821e-11, -6.7323365502518249e-11, -1.7646196578989591e-10, -3.4353961300687608e-10, -5.096403913125798e-10], [0.99999999946162088, -3.6470770685194514e-11, -1.7021278146182946e-10, -3.2719226427043259e-10, -4.3054118902667655e-10, -4.6885218180604214e-10, -4.3029045434787069e-10, -3.3200330311148765e-10, -2.0408879768579713e-10, -9.2979633346120751e-11, -3.7713896115364739e-11, -6.7323365502513997e-11, -1.764619657899019e-10, -3.4353961300682671e-10, -5.0964039131267472e-10]], [[-5.1972130606405687e-10, 0.99999999991028976, -2.1236698544734871e-10, -2.7380730101700375e-10, -3.0433988330101668e-10, -3.1208453139337146e-10, -3.1175183026459225e-10, -3.0546046217028538e-10, -2.9871787315578922e-10, -2.9058758891982278e-10, -2.8452557964110666e-10, -2.7727429116616429e-10, -2.7390277116053594e-10, -2.6733928697068212e-10, -2.6709337198771612e-10], [-5.1972130606410712e-10, 0.99999999991028976, -2.1236698544737047e-10, -2.738073010169716e-10, -3.0433988330101105e-10, -3.1208453139338723e-10, -3.1175183026456081e-10, -3.0546046217029609e-10, -2.9871787315575416e-10, -2.905875889197764e-10, -2.8452557964105625e-10, -2.7727429116613219e-10, -2.7390277116051955e-10, -2.6733928697067711e-10, -2.6709337198771271e-10], [-5.1972130606407238e-10, 0.99999999991028976, -2.1236698544735269e-10, -2.7380730101700375e-10, -3.04339883301043e-10, -3.1208453139337146e-10, -3.1175183026459225e-10, -3.0546046217028538e-10, -2.9871787315572925e-10, -2.9058758891982278e-10, -2.8452557964108448e-10, -2.7727429116616429e-10, -2.7390277116053594e-10, -2.6733928697068212e-10, -2.6709337198771173e-10]], [[-5.2460183419142747e-10, -7.2614442487444171e-11, 0.99999999974895459, -3.3256765282235912e-10, -2.5423289427343173e-10, -2.0463220376589287e-10, -2.9285038407193922e-10, -4.3083356505310583e-10, -4.4485310264709369e-10, -2.8337298063424695e-10, -9.1626360850293787e-11, -9.9930189645864416e-11, -3.3966486075963845e-10, -5.5536796328651123e-10, -4.5400655328680527e-10], [-5.2460183419139469e-10, -7.2614442487443241e-11, 0.99999999974895459, -3.3256765282234629e-10, -2.542328942734567e-10, -2.0463220376588842e-10, -2.9285038407190799e-10, -4.3083356505311705e-10, -4.448531026471245e-10, -2.8337298063425569e-10, -9.1626360850300133e-11, -9.9930189645859466e-11, -3.3966486075963938e-10, -5.553679632865316e-10, -4.5400655328674695e-10], [-5.2460183419146294e-10, -7.2614442487432164e-11, 0.99999999974895459, -3.3256765282236971e-10, -2.5423289427345577e-10, -2.0463220376590758e-10, -2.9285038407191973e-10, -4.3083356505311969e-10, -4.4485310264711892e-10, -2.8337298063422875e-10, -9.1626360850295248e-11, -9.9930189645854554e-11, -3.3966486075964554e-10, -5.55367963286568e-10, -4.5400655328678449e-10]]], prehc: 0, lambdahc: 0, rcut: 5, dcut: 0.01, rcut_in: 0, dcut_in: 0, inner_cutoff_type: distance}
  [0, 1]: {nradmax: 3, lmax: 2, nradbasemax: 15, radbasename: ChebExpCos, radparameters: [5.25], radcoefficients: [[[0.98847315269213476, -0.016231725075768227, -0.024491418538238368, 0.01263904180309415, 0.039024627315327874, -0.0058403326928122739, -0.06378752344385516, -0.037470776597029194, 0.039904222593448592, 0.044988406068843807, -0.028712976586390243, -0.052177550240965348, 0.013594977710636268, 0.036030317149490565, -0.04957760146201258], [0.99986100237161524, -0.0033968404281242833, -0.0038407974622005265, 0.0065615351718016218, 0.011856972333953865, -0.0025818890252164379, -0.018126349908841977, -0.0074147493778909208, 0.017303329529500908, 0.017065201380995671, -0.010607700169277484, -0.022188244084836762, 0.0025216879838685035, 0.022940039826024102, 0.0024749694393086516], [0.99003052525306201, -0.0073130950310469588, -0.013334793668455365, -0.0014333741524511872, 0.010108822949633091, -0.0027328023089299405, -0.023322983341027993, -0.01686811770422101, 0.009417246330614833, 0.013403339330872887, -0.011816397138816898, -0.023396071998535453, -0.0017180030837094088, 0.012199499702626923, -0.011645567928829861]], [[-0.006542672653746669, 0.99830432332918384, -0.0049726839229967913, -0.0063213896221942676, -0.0044645234500131185, -0.0018644618542054999, -0.0013697871259625495, -0.0023380571053469865, -0.002541188645385232, -0.0030630074470417213, -0.0064791293828514243, -0.0092861443672800428, -0.0035970897889659494, 0.0082056212503567073, 0.0088727173024356325], [-0.0024839139627010117, 0.99949410832397656, -0.0017542070375130927, -0.0026859830299454019, -0.0020862945579981393, -0.00048360481968825054, 2.6253384066924105e-05, -0.0010477721874273065, -0.0016211134218002622, -0.0008896072662487772, -0.0013465591331286149, -0.0037831870605232387, -0.0035210793214623805, 0.0024160823434939507, 0.0065753802359090055], [-0.002776317847917232, 0.99970710275247165, -0.0016740645001053561, -0.0035954378824797381, -0.0033260233583662746, -0.00020825971572877743, 0.0017393039562614407, -0.00056675938594421952, -0.0037213999367850165, -0.0029325408204406629, -0.00030056216665607651, -0.0011628772391041071, -0.0035401966187297933, -0.00061367912521858952, 0.0049691424365458908]], [[0.0036865674157923987, -0.00050499222093587648, 1.0013722170799131, 0.0069077117301631049, 0.0075807599418246056, -0.0014493470641384902, -0.0083692881601200135, -0.0004187562184291946, 0.012772745465968852, 0.010320418349948372, -0.0059621659396259883, -0.010696734540125971, 0.005052420042332622, 0.016148034383049327, 0.002638030921315703], [0.00095441547669009616, -0.00027348278126908303, 1.0002033480254287, 0.0020945815360278518, 0.0024829626443480693, -0.00053698610698367738, -0.0030463298546351976, -0.00043103122407545287, 0.004271053588730556, 0.0036598086482662225, -0.0021448689120701215, -0.0043046739666848383, 0.0011248490357019328, 0.0058397445232025776, 0.0018271546079314848], [0.0018377960823668053, -2.9325199094233465e-05, 1.000901694216676, 0.0029383770329106679, 0.0030189685695579086, -0.00034713208890968674, -0.0028263323694827664, 2.1690518976680377e-05, 0.0047194239315611662, 0.0039825161285772567, -0.0015364870209570445, -0.0032025694397998282, 0.0018614953279286277, 0.0052219990818947433, 0.00073603319565406942]]], prehc: 0, lambdahc: 0, rcut: 5, dcut: 0.01, rcut_in: 0, dcut_in: 0, inner_cutoff_type: distance}
  [0, 2]: {nradmax: 3, lmax: 2, nradbasemax: 15, radbasename: ChebExpCos, radparameters: [5.25], radcoefficients: [[[0.99999999892324198, -7.2941541370388033e-11, -3.4042556292367562e-10, -6.5438452854078483e-10, -8.6108237805334731e-10, -9.3770436361215335e-10, -8.6058090869580342e-10, -6.6400660622308387e-10, -4.0817759537159804e-10, -1.8595926669228503e-10, -7.5427792230736264e-11, -1.3464673100502525e-10, -3.5292393157980008e-10, -6.8707922601375961e-10, -1.0192807826252161e-09], [0.99999999892324198, -7.2941541370389455e-11, -3.4042556292368472e-10, -6.5438452854075878e-10, -8.6108237805332529e-10, -9.3770436361213205e-10, -8.6058090869573972e-10, -6.6400660622309152e-10, -4.0817759537157643e-10, -1.8595926669226373e-10, -7.5427792230719229e-11, -1.3464673100503133e-10, -3.5292393157980794e-10, -6.8707922601374978e-10, -1.0192807826252148e-09], [0.99999999892324198, -7.2941541370388033e-11, -3.4042556292367376e-10, -6.5438452854078483e-10, -8.6108237805334731e-10, -9.3770436361207622e-10, -8.6058090869580342e-10, -6.6400660622307405e-10, -4.0817759537159804e-10, -1.8595926669227989e-10, -7.5427792230734946e-11, -1.3464673100502525e-10, -3.5292393157980008e-10, -6.8707922601373159e-10, -1.0192807826252161e-09]], [[-1.0394426121282223e-09, 0.99999999982057919, -4.247339708947671e-10, -5.4761460203395364e-10, -6.0867976660207286e-10, -6.2416906278676991e-10, -6.2350366052918749e-10, -6.1092092434063715e-10, -5.9743574631149034e-10, -5.8117517783959903e-10, -5.6905115928220049e-10, -5.5454858233224979e-10, -5.4780554232102039e-10, -5.3467857394132609e-10, -5.341867439753975e-10], [-1.0394426121282134e-09, 0.99999999982057919, -4.2473397089466846e-10, -5.4761460203395002e-10, -6.0867976660202292e-10, -6.2416906278674127e-10, -6.2350366052911821e-10, -6.1092092434064945e-10, -5.9743574631156458e-10, -5.81175177839659e-10, -5.6905115928219667e-10, -5.5454858233232e-10, -5.4780554232104479e-10, -5.3467857394133498e-10, -5.3418674397539947e-10], [-1.0394426121281493e-09, 0.99999999982057919, -4.2473397089477951e-10, -5.4761460203395364e-10, -6.0867976660207286e-10, -6.2416906278676991e-10, -6.2350366052917488e-10, -6.1092092434063715e-10, -5.9743574631154348e-10, -5.8117517783959903e-10, -5.6905115928220049e-10, -5.5454858233224979e-10, -5.4780554232100074e-10, -5.3467857394132609e-10, -5.3418674397539006e-10]], [[-1.0492036683828146e-09, -1.4522888497486834e-10, 0.99999999949790941, -6.6513530564470624e-10, -5.0846578854689674e-10, -4.0926440753176516e-10, -5.8570076814384224e-10, -8.6166713010629728e-10, -8.8970620529422884e-10, -5.6674596126849173e-10, -1.832527217005905e-10, -1.9986037929173871e-10, -6.7932972151925871e-10, -1.1107359265730711e-09, -9.0801310657363039e-10], [-1.0492036683829255e-09, -1.452288849748596e-10, 0.99999999949790941, -6.6513530564474687e-10, -5.0846578854687586e-10, -4.092644075318301e-10, -5.8570076814387957e-10, -8.6166713010624837e-10, -8.8970620529422325e-10, -5.6674596126844303e-10, -1.8325272170058995e-10, -1.9986037929172865e-10, -6.7932972151928456e-10, -1.1107359265732615e-09, -9.0801310657361881e-10], [-1.0492036683828163e-09, -1.452288849748826e-10, 0.99999999949790941, -6.6513530564480054e-10, -5.0846578854687503e-10, -4.0926440753181831e-10, -5.8570076814390025e-10, -8.6166713010629717e-10, -8.8970620529418634e-10, -5.667459612685517e-10, -1.8325272170056956e-10, -1.9986037929172912e-10, -6.7932972151938258e-10, -1.1107359265731401e-09, -9.0801310657352937e-10]]], prehc: 0, lambdahc: 0, rcut: 5, dcut: 0.01, rcut_in: 0, dcut_in: 0, inner_cutoff_type: distance}
  [1, 0]: {nradmax: 3, lmax: 2, nradbasemax: 15, radbasename: ChebExpCos, radparameters: [5.25], radcoefficients: [[[0.98847315269213476, -0.016231725075768227, -0.024491418538238368, 0.01263904180309415, 0.039024627315327874, -0.0058403326928122739, -0.06378752344385516, -0.037470776597029194, 0.039904222593448592, 0.044988406068843807, -0.028712976586390243, -0.052177550240965348, 0.013594977710636268, 0.036030317149490565, -0.04957760146201258], [0.99986100237161524, -0.0033968404281242833, -0.0038407974622005265, 0.0065615351718016218, 0.011856972333953865, -0.0025818890252164379, -0.018126349908841977, -0.0074147493778909208, 0.017303329529500908, 0.017065201380995671, -0.010607700169277484, -0.022188244084836762, 0.0025216879838685035, 0.022940039826024102, 0.0024749694393086516], [0.99003052525306201, -0.0073130950310469588, -0.013334793668455365, -0.0014333741524511872, 0.010108822949633091, -0.0027328023089299405, -0.023322983341027993, -0.01686811770422101, 0.009417246330614833, 0.013403339330872887, -0.011816397138816898, -0.023396071998535453, -0.0017180030837094088, 0.012199499702626923, -0.011645567928829861]], [[-0.006542672653746669, 0.99830432332918384, -0.0049726839229967913, -0.0063213896221942676, -0.0044645234500131185, -0.0018644618542054999, -0.0013697871259625495, -0.0023380571053469865, -0.002541188645385232, -0.0030630074470417213, -0.0064791293828514243, -0.0092861443672800428, -0.0035970897889659494, 0.0082056212503567073, 0.0088727173024356325], [-0.0024839139627010117, 0.99949410832397656, -0.0017542070375130927, -0.0026859830299454019, -0.0020862945579981393, -0.00048360481968825054, 2.6253384066924105e-05, -0.0010477721874273065, -0.0016211134218002622, -0.0008896072662487772, -0.0013465591331286149, -0.0037831870605232387, -0.0035210793214623805, 0.0024160823434939507, 0.0065753802359090055], [-0.002776317847917232, 0.99970710275247165, -0.0016740645001053561, -0.0035954378824797381, -0.0033260233583662746, -0.00020825971572877743, 0.0017393039562614407, -0.00056675938594421952, -0.0037213999367850165, -0.0029325408204406629, -0.00030056216665607651, -0.0011628772391041071, -0.0035401966187297933, -0.00061367912521858952, 0.0049691424365458908]], [[0.0036865674157923987, -0.00050499222093587648, 1.0013722170799131, 0.0069077117301631049, 0.0075807599418246056, -0.0014493470641384902, -0.0083692881601200135, -0.0004187562184291946, 0.012772745465968852, 0.010320418349948372, -0.0059621659396259883, -0.010696734540125971, 0.005052420042332622, 0.016148034383049327, 0.002638030921315703], [0.00095441547669009616, -0.00027348278126908303, 1.0002033480254287, 0.0020945815360278518, 0.0024829626443480693, -0.00053698610698367738, -0.0030463298546351976, -0.00043103122407545287, 0.004271053588730556, 0.0036598086482662225, -0.0021448689120701215, -0.0043046739666848383, 0.0011248490357019328, 0.0058397445232025776, 0.0018271546079314848], [0.0018377960823668053, -2.9325199094233465e-05, 1.000901694216676, 0.0029383770329106679, 0.0030189685695579086, -0.00034713208890968674, -0.0028263323694827664, 2.1690518976680377e-05, 0.0047194239315611662, 0.0039825161285772567, -0.0015364870209570445, -0.0032025694397998282, 0.0018614953279286277, 0.0052219990818947433, 0.00073603319565406942]]], prehc: 0, lambdahc: 0, rcut: 5, dcut: 0.01, rcut_in: 0, dcut_in: 0, inner_cutoff_type: distance}
  [1, 1]: {nradmax: 3, lmax: 2, nradbasemax: 15, radbasename: ChebExpCos, radparameters: [5.25], radcoefficients: [[[0.97826415882654627, -0.0092157672826632345, -0.026235434443050674, -0.030759500170433638, -0.015152422665973476, 0.0065632806480856948, 0.01315168129088088, -0.0010090923464718127, -0.01940278958525762, -0.021067580816952557, -0.0042281485767758312, 0.010127614731098663, 0.0004360232454161992, -0.029968732556004671, -0.052510313944059923], [0.97644312816725642, -0.0099255013786009923, -0.027968882569126021, -0.03189060766145714, -0.013787453841218867, 0.010243751109667229, 0.016540421918714503, -0.00095679256058569758, -0.024156188077296279, -0.030518824952220667, -0.01774082877138956, -0.0056022533126448846, -0.011661876992554677, -0.02776502926954131, -0.026486450190045936], [0.99299966944361429, -0.010476042770980709, -0.028692469086494164, -0.029590351153261585, -0.0043024936216671103, 0.028671842656249016, 0.041597248131590318, 0.025782838049414773, -0.00054681815827224472, -0.013555307732535601, -0.010688333038865886, -0.012054104848967693, -0.032716891487671783, -0.056867739054395558, -0.047597082562635874]], [[0.0014606840594490358, 1.00131900668272, 0.0041257488852219013, 0.0057489100808360769, 0.0038687556044045058, -0.0016546761832988003, -0.0081715525019289102, -0.011395928952075895, -0.0078914306552548656, 0.0023834355513003935, 0.015013224073710038, 0.022575375570886749, 0.018428012384246163, 0.0012136377869166267, -0.022507941088630766], [-0.0047469682577366548, 1.0001846358830213, 0.00082570951360695524, 0.0016337156225056319, 0.0011725462994162238, -0.0025398600725693569, -0.0098175785759531849, -0.017381161266354864, -0.019221199083692516, -0.010736926793046152, 0.0065232003129275951, 0.023628440827899135, 0.028679337974282251, 0.014795055157819648, -0.013636966066562492], [-0.0023933927431173132, 0.999766072734392, -0.00060650930971877513, -0.00053526536586909613, -1.352400464651874e-06, 8.5801425306736309e-05, -0.0014538245423683825, -0.0047303232279177296, -0.0079264138375736079, -0.0080367688871909714, -0.0031663875794010815, 0.0051705988829513876, 0.011894575959824447, 0.011288185693031525, 0.0015020986620640606]], [[0.0036109314917555833, -1.8939881155019436e-05, 1.0004896210093772, 0.0023394606679763299, 0.0050060713792451431, 0.0063627279316419184, 0.004467275771474228, -0.00016662596875330446, -0.00425529907724842, -0.0041873644150001669, 0.0006979667646938143, 0.0070406296829917088, 0.0098827174524121434, 0.0067105065676029384, -0.00036925257093218758], [0.0032638163200803439, -0.00067995149097548405, 0.99872013520779634, 0.00065973424412840524, 0.0051471456505455268, 0.0087215884110321256, 0.0074708177601252156, 0.0012630749637464868, -0.0052998949890127288, -0.0066709852313964913, -0.0015121082826545439, 0.0058442795170057628, 0.0092682465006163877, 0.0064061232770068243, 0.00052456749589160857], [0.0018505915392364285, -0.0011864322234801453, 0.9973129782274609, -0.00088381798063730103, 0.0045873049155956483, 0.0093043758906037506, 0.0080305175620107409, 0.00043611108631300859, -0.0075386159603933424, -0.0087569905303880227, -0.001843230180613628, 0.0069739821944861495, 0.0094937392831055019, 0.0035322837863470359, -0.0046780763567646939]]], prehc: 0, lambdahc: 0, rcut: 5, dcut: 0.01, rcut_in: 0, dcut_in: 0, inner_cutoff_type: distance}
  [1, 2]: {nradmax: 3, lmax: 2, nradbasemax: 15, radbasename: ChebExpCos, radparameters: [5.25], radcoefficients: [[[1.0758546272009573, 0.0085931032714945486, 0.040826620153789316, 0.081090191149122512, 0.077474046410435274, 0.020959269683895887, -0.015031142304766496, 0.024517691865713218, 0.090428363262150716, 0.10772675675984152, 0.07689086512015203, 0.02801679209467902, -0.040891147615014833, -0.088624098164015452, -0.01376717838739819], [1.0119057509298868, -0.001875510149155138, 0.0081317990338775122, 0.029021149840378339, 0.019161237293775273, -0.016573734131096595, -0.0072222501042635391, 0.046867903583723135, 0.035918454869682225, -0.061223658579467002, -0.084325379973943862, 0.051188021409594671, 0.1570873046159989, 0.051917267420718637, -0.11112037102191494], [0.94982334319163231, 0.0072388166418495912, 0.013938314070860993, -0.0094294990591185929, -0.066936225514903275, -0.113339144219979, -0.096886733423791088, -0.030669872517256835, 0.017379193479808347, 0.017734861305910607, 0.0096524595150783571, 0.01340491524512917, -0.013211798392862481, -0.070772513999993916, -0.058771775192608511]], [[0.010555373228059144, 1.0063041375995778, 0.013987761683888463, 0.0083140072607745148, -0.0050753543189061574, -0.011017005530528888, -0.0073037737168538336, 0.00077935629486272954, 0.015678584376617344, 0.035295877353481976, 0.036758684613531177, 0.0028975676850981485, -0.037499731851419943, -0.030460600150253109, 0.031568572805483364], [-0.0067065068433822487, 0.9967556458228094, -0.0055230831343649226, -8.8508404871916253e-05, 0.0033688956199684436, -0.004418112073791578, -0.013810907036913653, -0.012751071141407919, -0.0076407942234731942, -0.0074860715506332694, -0.0027895510249599763, 0.013980950614805469, 0.023124040381589449, 0.0069942367361687666, -0.011073515526889184], [-0.0055036603439320058, 1.0061826629494335, 0.011908896504285671, -0.00080240618635541491, -0.025142234513373888, -0.035844489915136064, -0.022038049829232, 0.0014656535022236606, 0.016853728469964135, 0.022176690113688273, 0.021315743203556461, 0.0099913546146617131, -0.012765066469656618, -0.026559472224521045, -0.005546167996936394]], [[0.0054027790381637021, -0.0030663179102410976, 0.99700281078627317, 0.0075950412820441106, 0.014220178704658321, 0.0045170341999385931, -0.0059167809458081982, 0.0018471867048223045, 0.015442558586419772, 0.011353948995880644, -0.0034154458121976173, -0.0043862224072327653, 0.0053903256082366915, 0.0027230914605528432, -0.00988501760092678], [0.001630618697118539, -0.0033871081044011386, 0.99879656629412716, 0.012624012539231563, 0.013049790741253807, -0.010408403447908656, -0.020368798247191611, 0.0090733330763659113, 0.035782046735788428, 0.010850987605990722, -0.034060353246614536, -0.031410504685170107, 0.011270203281889728, 0.026510313339303919, 0.0012067315181500198], [-0.0064805238706469358, -0.0044052697816338192, 0.99460531953786679, 0.0051093944753236187, 0.0056589000709222469, -0.015698258748838588, -0.026729227883847, 0.00053659547914045589, 0.031311685208395487, 0.012797217281362518, -0.036309567234801339, -0.044353503448115714, 0.0036110824433764803, 0.041224402612089851, 0.02276814824752723]]], prehc: 0, lambdahc: 0, rcut: 5, dcut: 0.01, rcut_in: 0, dcut_in: 0, inner_cutoff_type: distance}
  [2, 0]: {nradmax: 3, lmax: 2, nradbasemax: 15, radbasename: ChebExpCos, radparameters: [5.25], radcoefficients: [[[0.99999999892324198, -7.2941541370388033e-11, -3.4042556292367562e-10, -6.5438452854078483e-10, -8.6108237805334731e-10, -9.3770436361215335e-10, -8.6058090869580342e-10, -6.6400660622308387e-10, -4.0817759537159804e-10, -1.8595926669228503e-10, -7.5427792230736264e-11, -1.3464673100502525e-10, -3.5292393157980008e-10, -6.8707922601375961e-10, -1.0192807826252161e-09], [0.99999999892324198, -7.2941541370389455e-11, -3.4042556292368472e-10, -6.5438452854075878e-10, -8.6108237805332529e-10, -9.3770436361213205e-10, -8.6058090869573972e-10, -6.6400660622309152e-10, -4.0817759537157643e-10, -1.8595926669226373e-10, -7.5427792230719229e-11, -1.3464673100503133e-10, -3.5292393157980794e-10, -6.8707922601374978e-10, -1.0192807826252148e-09], [0.99999999892324198, -7.2941541370388033e-11, -3.4042556292367376e-10, -6.5438452854078483e-10, -8.6108237805334731e-10, -9.3770436361207622e-10, -8.6058090869580342e-10, -6.6400660622307405e-10, -4.0817759537159804e-10, -1.8595926669227989e-10, -7.5427792230734946e-11, -1.3464673100502525e-10, -3.5292393157980008e-10, -6.8707922601373159e-10, -1.0192807826252161e-09]], [[-1.0394426121282223e-09, 0.99999999982057919, -4.247339708947671e-10, -5.4761460203395364e-10, -6.0867976660207286e-10, -6.2416906278676991e-10, -6.2350366052918749e-10, -6.1092092434063715e-10, -5.9743574631149034e-10, -5.8117517783959903e-10, -5.6905115928220049e-10, -5.5454858233224979e-10, -5.4780554232102039e-10, -5.3467857394132609e-10, -5.341867439753975e-10], [-1.0394426121282134e-09, 0.99999999982057919, -4.2473397089466846e-10, -5.4761460203395002e-10, -6.0867976660202292e-10, -6.2416906278674127e-10, -6.2350366052911821e-10, -6.1092092434064945e-10, -5.9743574631156458e-10, -5.81175177839659e-10, -5.6905115928219667e-10, -5.5454858233232e-10, -5.4780554232104479e-10, -5.3467857394133498e-10, -5.3418674397539947e-10], [-1.0394426121281493e-09, 0.99999999982057919, -4.2473397089477951e-10, -5.4761460203395364e-10, -6.0867976660207286e-10, -6.2416906278676991e-10, -6.2350366052917488e-10, -6.1092092434063715e-10, -5.9743574631154348e-10, -5.8117517783959903e-10, -5.6905115928220049e-10, -5.5454858233224979e-10, -5.4780554232100074e-10, -5.3467857394132609e-10, -5.3418674397539006e-10]], [[-1.0492036683828146e-09, -1.4522888497486834e-10, 0.99999999949790941, -6.6513530564470624e-10, -5.0846578854689674e-10, -4.0926440753176516e-10, -5.8570076814384224e-10, -8.6166713010629728e-10, -8.8970620529422884e-10, -5.6674596126849173e-10, -1.832527217005905e-10, -1.9986037929173871e-10, -6.7932972151925871e-10, -1.1107359265730711e-09, -9.0801310657363039e-10], [-1.0492036683829255e-09, -1.452288849748596e-10, 0.99999999949790941, -6.6513530564474687e-10, -5.0846578854687586e-10, -4.092644075318301e-10, -5.8570076814387957e-10, -8.6166713010624837e-10, -8.8970620529422325e-10, -5.6674596126844303e-10, -1.8325272170058995e-10, -1.9986037929172865e-10, -6.7932972151928456e-10, -1.1107359265732615e-09, -9.0801310657361881e-10], [-1.0492036683828163e-09, -1.452288849748826e-10, 0.99999999949790941, -6.6513530564480054e-10, -5.0846578854687503e-10, -4.0926440753181831e-10, -5.8570076814390025e-10, -8.6166713010629717e-10, -8.8970620529418634e-10, -5.667459612685517e-10, -1.8325272170056956e-10, -1.9986037929172912e-10, -6.7932972151938258e-10, -1.1107359265731401e-09, -9.0801310657352937e-10]]], prehc: 0, lambdahc: 0, rcut: 5, dcut: 0.01, rcut_in: 0, dcut_in: 0, inner_cutoff_type: distance}
  [2, 1]: {nradmax: 3, lmax: 2, nradbasemax: 15, radbasename: ChebExpCos, radparameters: [5.25], radcoefficients: [[[1.0758546272009573, 0.0085931032714945486, 0.040826620153789316, 0.081090191149122512, 0.077474046410435274, 0.020959269683895887, -0.015031142304766496, 0.024517691865713218, 0.090428363262150716, 0.10772675675984152, 0.07689086512015203, 0.02801679209467902, -0.040891147615014833, -0.088624098164015452, -0.01376717838739819], [1.0119057509298868, -0.001875510149155138, 0.0081317990338775122, 0.029021149840378339, 0.019161237293775273, -0.016573734131096595, -0.0072222501042635391, 0.046867903583723135, 0.035918454869682225, -0.061223658579467002, -0.084325379973943862, 0.051188021409594671, 0.1570873046159989, 0.051917267420718637, -0.11112037102191494], [0.94982334319163231, 0.0072388166418495912, 0.013938314070860993, -0.0094294990591185929, -0.066936225514903275, -0.113339144219979, -0.096886733423791088, -0.030669872517256835, 0.017379193479808347, 0.017734861305910607, 0.0096524595150783571, 0.01340491524512917, -0.013211798392862481, -0.070772513999993916, -0.058771775192608511]], [[0.010555373228059144, 1.0063041375995778, 0.013987761683888463, 0.0083140072607745148, -0.0050753543189061574, -0.011017005530528888, -0.0073037737168538336, 0.00077935629486272954, 0.015678584376617344, 0.035295877353481976, 0.036758684613531177, 0.0028975676850981485, -0.037499731851419943, -0.030460600150253109, 0.031568572805483364], [-0.0067065068433822487, 0.9967556458228094, -0.0055230831343649226, -8.8508404871916253e-05, 0.0033688956199684436, -0.004418112073791578, -0.013810907036913653, -0.012751071141407919, -0.0076407942234731942, -0.0074860715506332694, -0.0027895510249599763, 0.013980950614805469, 0.023124040381589449, 0.0069942367361687666, -0.011073515526889184], [-0.0055036603439320058, 1.0061826629494335, 0.011908896504285671, -0.00080240618635541491, -0.025142234513373888, -0.035844489915136064, -0.022038049829232, 0.0014656535022236606, 0.016853728469964135, 0.022176690113688273, 0.021315743203556461, 0.0099913546146617131, -0.012765066469656618, -0.026559472224521045, -0.005546167996936394]], [[0.0054027790381637021, -0.0030663179102410976, 0.99700281078627317, 0.0075950412820441106, 0.014220178704658321, 0.0045170341999385931, -0.0059167809458081982, 0.0018471867048223045, 0.015442558586419772, 0.011353948995880644, -0.0034154458121976173, -0.0043862224072327653, 0.0053903256082366915, 0.0027230914605528432, -0.00988501760092678], [0.001630618697118539, -0.0033871081044011386, 0.99879656629412716, 0.012624012539231563, 0.013049790741253807, -0.010408403447908656, -0.020368798247191611, 0.0090733330763659113, 0.035782046735788428, 0.010850987605990722, -0.034060353246614536, -0.031410504685170107, 0.011270203281889728, 0.026510313339303919, 0.0012067315181500198], [-0.0064805238706469358, -0.0044052697816338192, 0.99460531953786679, 0.0051093944753236187, 0.0056589000709222469, -0.015698258748838588, -0.026729227883847, 0.00053659547914045589, 0.031311685208395487, 0.012797217281362518, -0.036309567234801339, -0.044353503448115714, 0.0036110824433764803, 0.041224402612089851, 0.02276814824752723]]], prehc: 0, lambdahc: 0, rcut: 5, dcut: 0.01, rcut_in: 0, dcut_in: 0, inner_cutoff_type: distance}
  [2, 2]: {nradmax: 3, lmax: 2, nradbasemax: 15, radbasename: ChebExpCos, radparameters: [5.25], radcoefficients: [[[1.0194267267164492, 0.018311761597402471, 0.04211927300892393, 0.023809647237955447, -0.026937472052601129, -0.046625203833336362, -0.0016651715231205144, 0.057897736883975773, 0.054743837064683568, -0.013369596884393535, -0.061306798413392878, -0.02381128114362626, 0.049683210187977431, 0.048626265777572002, -0.043122887193843405], [1.0166006513357262, 0.021072928245434028, 0.049278613480872258, 0.029693521174013613, -0.030318108053930145, -0.061040702581720438, -0.019337157319769933, 0.04885883476069143, 0.06119718027426739, 0.0057472588484370115, -0.039154537875902916, -0.008896529413953299, 0.04988730227059613, 0.029211147609835064, -0.084219239963685313], [1.0432284204392552, 0.033031434720179741, 0.07915139926118174, 0.055220565103106599, -0.028245705773404964, -0.068095255569544766, -0.0031383710347122245, 0.093955602561220333, 0.10010466334196337, 0.0038931896947086127, -0.069474345307553545, -0.021787074844920467, 0.070523495528689306, 0.039522146262914774, -0.13081548142521904]], [[0.004222732660977363, 1.0058114779983445, 0.012851106198377277, 0.0056091575579283867, -0.011659164062012589, -0.01713157778472239, -0.00067481378701544264, 0.018906418220892396, 0.015354567577973063, -0.0095004262782012842, -0.024202207979001765, -0.0076649553337551695, 0.018949553826401264, 0.015669280417022445, -0.01889252642000095], [0.00066978835557330967, 1.0054960910473747, 0.012380502023528266, 0.0057384321045982484, -0.011972072018349598, -0.021180412258923594, -0.01000990605484231, 0.0087030892164420108, 0.012485998312406977, -0.00128907503744267, -0.010876845639381247, 0.0002555003479608726, 0.017205402011912799, 0.0095939373255981598, -0.023996719798925727], [0.0073486527021204128, 1.0074444624642303, 0.017072874828782433, 0.0094812334439867748, -0.011290177539504587, -0.019222516325650144, -0.00057614243988957808, 0.024180098285754292, 0.023463123450684398, -0.0036368993249796398, -0.022544863107374427, -0.0072548943999423219, 0.021030845787886797, 0.016404543531882979, -0.027333436061103274]], [[0.0013770812558383616, 0.0018420752961516406, 1.0038783550928934, 0.0010729013964416356, -0.00465714029663147, -0.0055761092711682017, 0.0013682498995500343, 0.0087110006989582871, 0.0066687408014066774, -0.0038035789515174197, -0.01056158852275974, -0.0051165243091670781, 0.0053092284656751565, 0.005854160162737156, -0.0051496373292130582], [0.00021469725992755408, 0.0025167076154530717, 1.00551152124513, 0.0020378106828067835, -0.006381427850152185, -0.010180703271840773, -0.0039922882212733036, 0.0053318182029862661, 0.0066385150706771432, -0.00085610587258717137, -0.0057655743452959827, 0.00022570121057840356, 0.0092053916143867709, 0.0053942993267673814, -0.012164898376199848], [0.0056933477978736583, 0.0031969827732861323, 1.0076373714268492, 0.0053639041805870168, -0.0023055109344470351, -0.0052870804881166144, 0.0017800212732285178, 0.011041102477135641, 0.010641803197348009, 0.00080245757275209718, -0.0051694234093176538, 0.0013560674302843091, 0.010216399575579444, 0.0034930816162630014, -0.018054290320126062]]], prehc: 0, lambdahc: 0, rcut: 5, dcut: 0.01, rcut_in: 0, dcut_in: 0, inner_cutoff_type: distance}
functions:
  0:
    - {mu0: 0, rank: 1, ndensity: 2, num_ms_combs: 1, mus: [0], ns: [1], ls: [0], ms_combs: [0], ctildes: [0, 0]}
    - {mu0: 0, rank: 1, ndensity: 2, num_ms_combs: 1, mus: [0], ns: [2], ls: [0], ms_combs: [0], ctildes: [0, 0]}
    - {mu0: 0, rank: 1, ndensity: 2, num_ms_combs: 1, mus: [0], ns: [3], ls: [0], ms_combs: [0], ctildes: [0, 0]}
    - {mu0: 0, rank: 1, ndensity: 2, num_ms_combs: 1, mus: [0], ns: [4], ls: [0], ms_combs: [0], ctildes: [0, 0]}
    - {mu0: 0, rank: 1, ndensity: 2, num_ms_combs: 1, mus: [0], ns: [5], ls: [0], ms_combs: [0], ctildes: [0, 0]}
    - {mu0: 0, rank: 1, ndensity: 2, num_ms_combs: 1, mus: [0], ns: [6], ls: [0], ms_combs: [0], ctildes: [0, 0]}
    - {mu0: 0, rank: 1, ndensity: 2, num_ms_combs: 1, mus: [0], ns: [7], ls: [0], ms_combs: [0], ctildes: [0, 0]}
    - {mu0: 0, rank: 1, ndensity: 2, num_ms_combs: 1, mus: [0], ns: [8], ls: [0], ms_combs: [0], ctildes: [0, 0]}
    - {mu0: 0, rank: 1, ndensity: 2, num_ms_combs: 1, mus: [0], ns: [9], ls: [0], ms_combs: [0], ctildes: [0, 0]}
    - {mu0: 0, rank: 1, ndensity: 2, num_ms_combs: 1, mus: [0], ns: [10], ls: [0], ms_combs: [0], ctildes: [0, 0]}
    - {mu0: 0, rank: 1, ndensity: 2, num_ms_combs: 1, mus: [0], ns: [11], ls: [0], ms_combs: [0], ctildes: [0, 0]}
    - {mu0: 0, rank: 1, ndensity: 2, num_ms_combs: 1, mus: [0], ns: [12], ls: [0], ms_combs: [0], ctildes: [0, 0]}
    - {mu0: 0, rank: 1, ndensity: 2, num_ms_combs: 1, mus: [0], ns: [13], ls: [0], ms_combs: [0], ctildes: [0, 0]}
    - {mu0: 0, rank: 1, ndensity: 2, num_ms_combs: 1, mus: [0], ns: [14], ls: [0], ms_combs: [0], ctildes: [0, 0]}
    - {mu0: 0, rank: 1, ndensity: 2, num_ms_combs: 1, mus: [0], ns: [15], ls: [0], ms_combs: [0], ctildes: [0, 0]}
    - {mu0: 0, rank: 1, ndensity: 2, num_ms_combs: 1, mus: [1], ns: [1], ls: [0], ms_combs: [0], ctildes: [-0.026616580436735131, -0.012112166170041624]}
    - {mu0: 0, rank: 1, ndensity: 2, num_ms_combs: 1, mus: [1], ns: [2], ls: [0], ms_combs: [0], ctildes: [-0.0031817917574945222, -0.0021275073648327762]}
    - {mu0: 0, rank: 1, ndensity: 2, num_ms_combs: 1, mus: [1], ns: [3], ls: [0], ms_combs: [0], ctildes: [-0.017426084870350061, -0.0087232801959881406]}
    - {mu0: 0, rank: 1, ndensity: 2, num_ms_combs: 1, mus: [1], ns: [4], ls: [0], ms_combs: [0], ctildes: [-0.036184478078364668, -0.015222081744302483]}
    - {mu0: 0, rank: 1, ndensity: 2, num_ms_combs: 1, mus: [1], ns: [5], ls: [0], ms_combs: [0], ctildes: [-0.030673521361106168, -0.011581281538950017]}
    - {mu0: 0, rank: 1, ndensity: 2, num_ms_combs: 1, mus: [1], ns: [6], ls: [0], ms_combs: [0], ctildes: [0.0048832510608623836, 0.00199206272347095]}
    - {mu0: 0, rank: 1, ndensity: 2, num_ms_combs: 1, mus: [1], ns: [7], ls: [0], ms_combs: [0], ctildes: [0.023924774335340099, 0.0077159035140006646]}
    - {mu0: 0, rank: 1, ndensity: 2, num_ms_combs: 1, mus: [1], ns: [8], ls: [0], ms_combs: [0], ctildes: [-0.010865195450753739, -0.0064693337625909]}
    - {mu0: 0, rank: 1, ndensity: 2, num_ms_combs: 1, mus: [1], ns: [9], ls: [0], ms_combs: [0], ctildes: [-0.056788094838475515, -0.023365054389437156]}
    - {mu0: 0, rank: 1, ndensity: 2, num_ms_combs: 1, mus: [1], ns: [10], ls: [0], ms_combs: [0], ctildes: [-0.041596380987388312, -0.016505485528606974]}
    - {mu0: 0, rank: 1, ndensity: 2, num_ms_combs: 1, mus: [1], ns: [11], ls: [0], ms_combs: [0], ctildes: [0.020261317070112791, 0.0078672910565309728]}
    - {mu0: 0, rank: 1, ndensity: 2, num_ms_combs: 1, mus: [1], ns: [12], ls: [0], ms_combs: [0], ctildes: [0.034750787591670641, 0.013854423968567404]}
    - {mu0: 0, rank: 1, ndensity: 2, num_ms_combs: 1, mus: [1], ns: [13], ls: [0], ms_combs: [0], ctildes: [-0.027286612406073121, -0.010781586980784316]}
    - {mu0: 0, rank: 1, ndensity: 2, num_ms_combs: 1, mus: [1], ns: [14], ls: [0], ms_combs: [0], ctildes: [-0.071212074648242973, -0.03062583153618666]}
    - {mu0: 0, rank: 1, ndensity: 2, num_ms_combs: 1, mus: [1], ns: [15], ls: [0], ms_combs: [0], ctildes: [-0.021000784796105929, -0.013241810460723952]}
    - {mu0: 0, rank: 1, ndensity: 2, num_ms_combs: 1, mus: [2], ns: [1], ls: [0], ms_combs: [0], ctildes: [0, 0]}
    - {mu0: 0, rank: 1, ndensity: 2, num_ms_combs: 1, mus: [2], ns: [2], ls: [0], ms_combs: [0], ctildes: [0, 0]}
    - {mu0: 0, rank: 1, ndensity: 2, num_ms_combs: 1, mus: [2], ns: [3], ls: [0], ms_combs: [0], ctildes: [0, 0]}
    - {mu0: 0, rank: 1, ndensity: 2, num_ms_combs: 1, mus: [2], ns: [4], ls: [0], ms_combs: [0], ctildes: [0, 0]}
    - {mu0: 0, rank: 1, ndensity: 2, num_ms_combs: 1, mus: [2], ns: [5], ls: [0], ms_combs: [0], ctildes: [0, 0]}
    - {mu0: 0, rank: 1, ndensity: 2, num_ms_combs: 1, mus: [2], ns: [6], ls: [0], ms_combs: [0], ctildes: [0, 0]}
    - {mu0: 0, rank: 1, ndensity: 2, num_ms_combs: 1, mus: [2], ns: [7], ls: [0], ms_combs: [0], ctildes: [0, 0]}
    - {mu0: 0, rank: 1, ndensity: 2, num_ms_combs: 1, mus: [2], ns: [8], ls: [0], ms_combs: [0], ctildes: [0, 0]}
    - {mu0: 0, rank: 1, ndensity: 2, num_ms_combs: 1, mus: [2], ns: [9], ls: [0], ms_combs: [0], ctildes: [0, 0]}
    - {mu0: 0, rank: 1, ndensity: 2, num_ms_combs: 1, mus: [2], ns: [10], ls: [0], ms_combs: [0], ctildes: [0, 0]}
    - {mu0: 0, rank: 1, ndensity: 2, num_ms_combs: 1, mus: [2], ns: [11], ls: [0], ms_combs: [0], ctildes: [0, 0]}
    - {mu0: 0, rank: 1, ndensity: 2, num_ms_combs: 1, mus: [2], ns: [12], ls: [0], ms_combs: [0], ctildes: [0, 0]}
    - {mu0: 0, rank: 1, ndensity: 2, num_ms_combs: 1, mus: [2], ns: [13], ls: [0], ms_combs: [0], ctildes: [0, 0]}
    - {mu0: 0, rank: 1, ndensity: 2, num_ms_combs: 1, mus: [2], ns: [14], ls: [0], ms_combs: [0], ctildes: [0, 0]}
    - {mu0: 0, rank: 1, ndensity: 2, num_ms_combs: 1, mus: [2], ns: [15], ls: [0], ms_combs: [0], ctildes: [0, 0]}
    - {mu0: 0, rank: 2, ndensity: 2, num_ms_combs: 1, mus: [0, 0], ns: [1, 1], ls: [0, 0], ms_combs: [0, 0], ctildes: [0, 0]}
    - {mu0: 0, rank: 2, ndensity: 2, num_ms_combs: 2, mus: [0, 0], ns: [1, 1], ls: [1, 1], ms_combs: [0, 0, 1, -1], ctildes: [0, 0, 0, 0]}
    - {mu0: 0, rank: 2, ndensity: 2, num_ms_combs: 3, mus: [0, 0], ns: [1, 1], ls: [2, 2], ms_combs: [0, 0, 1, -1, 2, -2], ctildes: [0, 0, 0, 0, 0, 0]}
    - {mu0: 0, rank: 2, ndensity: 2, num_ms_combs: 1, mus: [0, 0], ns: [1, 2], ls: [0, 0], ms_combs: [0, 0], ctildes: [0, 0]}
    - {mu0: 0, rank: 2, ndensity: 2, num_ms_combs: 2, mus: [0, 0], ns: [1, 2], ls: [1, 1], ms_combs: [0, 0, 1, -1], ctildes: [0, 0, 0, 0]}
    - {mu0: 0, rank: 2, ndensity: 2, num_ms_combs: 3, mus: [0, 0], ns: [1, 2], ls: [2, 2], ms_combs: [0, 0, 1, -1, 2, -2], ctildes: [0, 0, 0, 0, 0, 0]}
    - {mu0: 0, rank: 2, ndensity: 2, num_ms_combs: 1, mus: [0, 0], ns: [1, 3], ls: [0, 0], ms_combs: [0, 0], ctildes: [0, 0]}
    - {mu0: 0, rank: 2, ndensity: 2, num_ms_combs: 2, mus: [0, 0], ns: [1, 3], ls: [1, 1], ms_combs: [0, 0, 1, -1], ctildes: [0, 0, 0, 0]}
    - {mu0: 0, rank: 2, ndensity: 2, num_ms_combs: 3, mus: [0, 0], ns: [1, 3], ls: [2, 2], ms_combs: [0, 0, 1, -1, 2, -2], ctildes: [0, 0, 0, 0, 0, 0]}
    - {mu0: 0, rank: 2, ndensity: 2, num_ms_combs: 1, mus: [0, 0], ns: [2, 2], ls: [0, 0], ms_combs: [0, 0], ctildes: [0, 0]}
    - {mu0: 0, rank: 2, ndensity: 2, num_ms_combs: 2, mus: [0, 0], ns: [2, 2], ls: [1, 1], ms_combs: [0, 0, 1, -1], ctildes: [0, 0, 0, 0]}
    - {mu0: 0, rank: 2, ndensity: 2, num_ms_combs: 3, mus: [0, 0], ns: [2, 2], ls: [2, 2], ms_combs: [0, 0, 1, -1, 2, -2], ctildes: [0, 0, 0, 0, 0, 0]}
    - {mu0: 0, rank: 2, ndensity: 2, num_ms_combs: 1, mus: [0, 0], ns: [2, 3], ls: [0, 0], ms_combs: [0, 0], ctildes: [0, 0]}
    - {mu0: 0, rank: 2, ndensity: 2, num_ms_combs: 2, mus: [0, 0], ns: [2, 3], ls: [1, 1], ms_combs: [0, 0, 1, -1], ctildes: [0, 0, 0, 0]}
    - {mu0: 0, rank: 2, ndensity: 2, num_ms_combs: 3, mus: [0, 0], ns: [2, 3], ls: [2, 2], ms_combs: [0, 0, 1, -1, 2, -2], ctildes: [0, 0, 0, 0, 0, 0]}
    - {mu0: 0, rank: 2, ndensity: 2, num_ms_combs: 1, mus: [0, 0], ns: [3, 3], ls: [0, 0], ms_combs: [0, 0], ctildes: [0, 0]}
    - {mu0: 0, rank: 2, ndensity: 2, num_ms_combs: 2, mus: [0, 0], ns: [3, 3], ls: [1, 1], ms_combs: [0, 0, 1, -1], ctildes: [0, 0, 0, 0]}
    - {mu0: 0, rank: 2, ndensity: 2, num_ms_combs: 3, mus: [0, 0], ns: [3, 3], ls: [2, 2], ms_combs: [0, 0, 1, -1, 2, -2], ctildes: [0, 0, 0, 0, 0, 0]}
    - {mu0: 0, rank: 2, ndensity: 2, num_ms_combs: 1, mus: [0, 1], ns: [1, 1], ls: [0, 0], ms_combs: [0, 0], ctildes: [0, 0]}
    - {mu0: 0, rank: 2, ndensity: 2, num_ms_combs: 2, mus: [0, 1], ns: [1, 1], ls: [1, 1], ms_combs: [0, 0, 1, -1], ctildes: [0, 0, 0, 0]}
    - {mu0: 0, rank: 2, ndensity: 2, num_ms_combs: 3, mus: [0, 1], ns: [1, 1], ls: [2, 2], ms_combs: [0, 0, 1, -1, 2, -2], ctildes: [0, 0, 0, 0, 0, 0]}
    - {mu0: 0, rank: 2, ndensity: 2, num_ms_combs: 1, mus: [0, 1], ns: [1, 2], ls: [0, 0], ms_combs: [0, 0], ctildes: [0, 0]}
    - {mu0: 0, rank: 2, ndensity: 2, num_ms_combs: 2, mus: [0, 1], ns: [1, 2], ls: [1, 1], ms_combs: [0, 0, 1, -1], ctildes: [0, 0, 0, 0]}
    - {mu0: 0, rank: 2, ndensity: 2, num_ms_combs: 3, mus: [0, 1], ns: [1, 2], ls: [2, 2], ms_combs: [0, 0, 1, -1, 2, -2], ctildes: [0, 0, 0, 0, 0, 0]}
    - {mu0: 0, rank: 2, ndensity: 2, num_ms_combs: 1, mus: [0, 1], ns: [1, 3], ls: [0, 0], ms_combs: [0, 0], ctildes: [0, 0]}
    - {mu0: 0, rank: 2, ndensity: 2, num_ms_combs: 2, mus: [0, 1], ns: [1, 3], ls: [1, 1], ms_combs: [0, 0, 1, -1], ctildes: [0, 0, 0, 0]}
    - {mu0: 0, rank: 2, ndensity: 2, num_ms_combs: 3, mus: [0, 1], ns: [1, 3], ls: [2, 2], ms_combs: [0, 0, 1, -1, 2, -2], ctildes: [0, 0, 0, 0, 0, 0]}
    - {mu0: 0, rank: 2, ndensity: 2, num_ms_combs: 1, mus: [0, 1], ns: [2, 1], ls: [0, 0], ms_combs: [0, 0], ctildes: [0, 0]}
    - {mu0: 0, rank: 2, ndensity: 2, num_ms_combs: 2, mus: [0, 1], ns: [2, 1], ls: [1, 1], ms_combs: [0, 0, 1, -1], ctildes: [0, 0, 0, 0]}
    - {mu0: 0, rank: 2, ndensity: 2, num_ms_combs: 3, mus: [0, 1], ns: [2, 1], ls: [2, 2], ms_combs: [0, 0, 1, -1, 2, -2], ctildes: [0, 0, 0, 0, 0, 0]}
    - {mu0: 0, rank: 2, ndensity: 2, num_ms_combs: 1, mus: [0, 1], ns: [2, 2], ls: [0, 0], ms_combs: [0, 0], ctildes: [0, 0]}
    - {mu0: 0, rank: 2, ndensity: 2, num_ms_combs: 2, mus: [0, 1], ns: [2, 2], ls: [1, 1], ms_combs: [0, 0, 1, -1], ctildes: [0, 0, 0, 0]}
    - {mu0: 0, rank: 2, ndensity: 2, num_ms_combs: 3, mus: [0, 1], ns: [2, 2], ls: [2, 2], ms_combs: [0, 0, 1, -1, 2, -2], ctildes: [0, 0, 0, 0, 0, 0]}
    - {mu0: 0, rank: 2, ndensity: 2, num_ms_combs: 1, mus: [0, 1], ns: [2, 3], ls: [0, 0], ms_combs: [0, 0], ctildes: [0, 0]}
    - {mu0: 0, rank: 2, ndensity: 2, num_ms_combs: 2, mus: [0, 1], ns: [2, 3], ls: [1, 1], ms_combs: [0, 0, 1, -1], ctildes: [0, 0, 0, 0]}
    - {mu0: 0, rank: 2, ndensity: 2, num_ms_combs: 3, mus: [0, 1], ns: [2, 3], ls: [2, 2], ms_combs: [0, 0, 1, -1, 2, -2], ctildes: [0, 0, 0, 0, 0, 0]}
    - {mu0: 0, rank: 2, ndensity: 2, num_ms_combs: 1, mus: [0, 1], ns: [3, 1], ls: [0, 0], ms_combs: [0, 0], ctildes: [0, 0]}
    - {mu0: 0, rank: 2, ndensity: 2, num_ms_combs: 2, mus: [0, 1], ns: [3, 1], ls: [1, 1], ms_combs: [0, 0, 1, -1], ctildes: [0, 0, 0, 0]}
    - {mu0: 0, rank: 2, ndensity: 2, num_ms_combs: 3, mus: [0, 1], ns: [3, 1], ls: [2, 2], ms_combs: [0, 0, 1, -1, 2, -2], ctildes: [0, 0, 0, 0, 0, 0]}
    - {mu0: 0, rank: 2, ndensity: 2, num_ms_combs: 1, mus: [0, 1], ns: [3, 2], ls: [0, 0], ms_combs: [0, 0], ctildes: [0, 0]}
    - {mu0: 0, rank: 2, ndensity: 2, num_ms_combs: 2, mus: [0, 1], ns: [3, 2], ls: [1, 1], ms_combs: [0, 0, 1, -1], ctildes: [0, 0, 0, 0]}
    - {mu0: 0, rank: 2, ndensity: 2, num_ms_combs: 3, mus: [0, 1], ns: [3, 2], ls: [2, 2], ms_combs: [0, 0, 1, -1, 2, -2], ctildes: [0, 0, 0, 0, 0, 0]}
    - {mu0: 0, rank: 2, ndensity: 2, num_ms_combs: 1, mus: [0, 1], ns: [3, 3], ls: [0, 0], ms_combs: [0, 0], ctildes: [0, 0]}
    - {mu0: 0, rank: 2, ndensity: 2, num_ms_combs: 2, mus: [0, 1], ns: [3, 3], ls: [1, 1], ms_combs: [0, 0, 1, -1], ctildes: [0, 0, 0, 0]}
    - {mu0: 0, rank: 2, ndensity: 2, num_ms_combs: 3, mus: [0, 1], ns: [3, 3], ls: [2, 2], ms_combs: [0, 0, 1, -1, 2, -2], ctildes: [0, 0, 0, 0, 0, 0]}
    - {mu0: 0, rank: 2, ndensity: 2, num_ms_combs: 1, mus: [0, 2], ns: [1, 1], ls: [0, 0], ms_combs: [0, 0], ctildes: [0, 0]}
    - {mu0: 0, rank: 2, ndensity: 2, num_ms_combs: 2, mus: [0, 2], ns: [1, 1], ls: [1, 1], ms_combs: [0, 0, 1, -1], ctildes: [0, 0, 0, 0]}
    - {mu0: 0, rank: 2, ndensity: 2, num_ms_combs: 3, mus: [0, 2], ns: [1, 1], ls: [2, 2], ms_combs: [0, 0, 1, -1, 2, -2], ctildes: [0, 0, 0, 0, 0, 0]}
    - {mu0: 0, rank: 2, ndensity: 2, num_ms_combs: 1, mus: [0, 2], ns: [1, 2], ls: [0, 0], ms_combs: [0, 0], ctildes: [0, 0]}
    - {mu0: 0, rank: 2, ndensity: 2, num_ms_combs: 2, mus: [0, 2], ns: [1, 2], ls: [1, 1], ms_combs: [0, 0, 1, -1], ctildes: [0, 0, 0, 0]}
    - {mu0: 0, rank: 2, ndensity: 2, num_ms_combs: 3, mus: [0, 2], ns: [1, 2], ls: [2, 2], ms_combs: [0, 0, 1, -1, 2, -2], ctildes: [0, 0, 0, 0, 0, 0]}
    - {mu0: 0, rank: 2, ndensity: 2, num_ms_combs: 1, mus: [0, 2], ns: [1, 3], ls: [0, 0], ms_combs: [0, 0], ctildes: [0, 0]}
    - {mu0: 0, rank: 2, ndensity: 2, num_ms_combs: 2, mus: [0, 2], ns: [1, 3], ls: [1, 1], ms_combs: [0, 0, 1, -1], ctildes: [0, 0, 0, 0]}
    - {mu0: 0, rank: 2, ndensity: 2, num_ms_combs: 3, mus: [0, 2], ns: [1, 3], ls: [2, 2], ms_combs: [0, 0, 1, -1, 2, -2], ctildes: [0, 0, 0, 0, 0, 0]}
    - {mu0: 0, rank: 2, ndensity: 2, num_ms_combs: 1, mus: [0, 2], ns: [2, 1], ls: [0, 0], ms_combs: [0, 0], ctildes: [0, 0]}
    - {mu0: 0, rank: 2, ndensity: 2, num_ms_combs: 2, mus: [0, 2], ns: [2, 1], ls: [1, 1], ms_combs: [0, 0, 1, -1], ctildes: [0, 0, 0, 0]}
    - {mu0: 0, rank: 2, ndensity: 2, num_ms_combs: 3, mus: [0, 2], ns: [2, 1], ls: [2, 2], ms_combs: [0, 0, 1, -1, 2, -2], ctildes: [0, 0, 0, 0, 0, 0]}
    - {mu0: 0, rank: 2, ndensity: 2, num_ms_combs: 1, mus: [0, 2], ns: [2, 2], ls: [0, 0], ms_combs: [0, 0], ctildes: [0, 0]}
    - {mu0: 0, rank: 2, ndensity: 2, num_ms_combs: 2, mus: [0, 2], ns: [2, 2], ls: [1, 1], ms_combs: [0, 0, 1, -1], ctildes: [0, 0, 0, 0]}
    - {mu0: 0, rank: 2, ndensity: 2, num_ms_combs: 3, mus: [0, 2], ns: [2, 2], ls: [2, 2], ms_combs: [0, 0, 1, -1, 2, -2], ctildes: [0, 0, 0, 0, 0, 0]}
    - {mu0: 0, rank: 2, ndensity: 2, num_ms_combs: 1, mus: [0, 2], ns: [2, 3], ls: [0, 0], ms_combs: [0, 0], ctildes: [0, 0]}
    - {mu0: 0, rank: 2, ndensity: 2, num_ms_combs: 2, mus: [0, 2], ns: [2, 3], ls: [1, 1], ms_combs: [0, 0, 1, -1], ctildes: [0, 0, 0, 0]}
    - {mu0: 0, rank: 2, ndensity: 2, num_ms_combs: 3, mus: [0, 2], ns: [2, 3], ls: [2, 2], ms_combs: [0, 0, 1, -1, 2, -2], ctildes: [0, 0, 0, 0, 0, 0]}
    - {mu0: 0, rank: 2, ndensity: 2, num_ms_combs: 1, mus: [0, 2], ns: [3, 1], ls: [0, 0], ms_combs: [0, 0], ctildes: [0, 0]}
    - {mu0: 0, rank: 2, ndensity: 2, num_ms_combs: 2, mus: [0, 2], ns: [3, 1], ls: [1, 1], ms_combs: [0, 0, 1, -1], ctildes: [0, 0, 0, 0]}
    - {mu0: 0, rank: 2, ndensity: 2, num_ms_combs: 3, mus: [0, 2], ns: [3, 1], ls: [2, 2], ms_combs: [0, 0, 1, -1, 2, -2], ctildes: [0, 0, 0, 0, 0, 0]}
    - {mu0: 0, rank: 2, ndensity: 2, num_ms_combs: 1, mus: [0, 2], ns: [3, 2], ls: [0, 0], ms_combs: [0, 0], ctildes: [0, 0]}
    - {mu0: 0, rank: 2, ndensity: 2, num_ms_combs: 2, mus: [0, 2], ns: [3, 2], ls: [1, 1], ms_combs: [0, 0, 1, -1], ctildes: [0, 0, 0, 0]}
    - {mu0: 0, rank: 2, ndensity: 2, num_ms_combs: 3, mus: [0, 2], ns: [3, 2], ls: [2, 2], ms_combs: [0, 0, 1, -1, 2, -2], ctildes: [0, 0, 0, 0, 0, 0]}
    - {mu0: 0, rank: 2, ndensity: 2, num_ms_combs: 1, mus: [0, 2], ns: [3, 3], ls: [0, 0], ms_combs: [0, 0], ctildes: [0, 0]}
    - {mu0: 0, rank: 2, ndensity: 2, num_ms_combs: 2, mus: [0, 2], ns: [3, 3], ls: [1, 1], ms_combs: [0, 0, 1, -1], ctildes: [0, 0, 0, 0]}
    - {mu0: 0, rank: 2, ndensity: 2, num_ms_combs: 3, mus: [0, 2], ns: [3, 3], ls: [2, 2], ms_combs: [0, 0, 1, -1, 2, -2], ctildes: [0, 0, 0, 0, 0, 0]}
    - {mu0: 0, rank: 2, ndensity: 2, num_ms_combs: 1, mus: [1, 1], ns: [1, 1], ls: [0, 0], ms_combs: [0, 0], ctildes: [-0.041840958720069744, -0.027646161276199437]}
    - {mu0: 0, rank: 2, ndensity: 2, num_ms_combs: 2, mus: [1, 1], ns: [1, 1], ls: [1, 1], ms_combs: [0, 0, 1, -1], ctildes: [0.00458460446637355, 0.0012996532989444538, -0.0091692089327470982, -0.0025993065978889072]}
    - {mu0: 0, rank: 2, ndensity: 2, num_ms_combs: 3, mus: [1, 1], ns: [1, 1], ls: [2, 2], ms_combs: [0, 0, 1, -1, 2, -2], ctildes: [0.0065097836755807032, 0.0018917471397770756, -0.013019567351161408, -0.0037834942795541516, 0.01301956735116141, 0.0037834942795541525]}
    - {mu0: 0, rank: 2, ndensity: 2, num_ms_combs: 1, mus: [1, 1], ns: [1, 2], ls: [0, 0], ms_combs: [0, 0], ctildes: [0.00021545365036154532, -0.0041052383860022603]}
    - {mu0: 0, rank: 2, ndensity: 2, num_ms_combs: 2, mus: [1, 1], ns: [1, 2], ls: [1, 1], ms_combs: [0, 0, 1, -1], ctildes: [-0.00075623433551438824, -0.00026192113880643805, 0.001512468671028776, 0.000523842277612876]}
    - {mu0: 0, rank: 2, ndensity: 2, num_ms_combs: 3, mus: [1, 1], ns: [1, 2], ls: [2, 2], ms_combs: [0, 0, 1, -1, 2, -2], ctildes: [0.003954818161438908, 0.001230670004099058, -0.0079096363228778176, -0.0024613400081981165, 0.0079096363228778194, 0.0024613400081981169]}
    - {mu0: 0, rank: 2, ndensity: 2, num_ms_combs: 1, mus: [1, 1], ns: [1, 3], ls: [0, 0], ms_combs: [0, 0], ctildes: [-0.035811688508428773, -0.023528690796710317]}
    - {mu0: 0, rank: 2, ndensity: 2, num_ms_combs: 2, mus: [1, 1], ns: [1, 3], ls: [1, 1], ms_combs: [0, 0, 1, -1], ctildes: [0.00077503345856711739, 0.0001486830212695923, -0.0015500669171342343, -0.00029736604253918455]}
    - {mu0: 0, rank: 2, ndensity: 2, num_ms_combs: 3, mus: [1, 1], ns: [1, 3], ls: [2, 2], ms_combs: [0, 0, 1, -1, 2, -2], ctildes: [0.008817512855807022, 0.0026749642908860316, -0.017635025711614048, -0.005349928581772064, 0.017635025711614051, 0.0053499285817720649]}
    - {mu0: 0, rank: 2, ndensity: 2, num_ms_combs: 1, mus: [1, 1], ns: [2, 2], ls: [0, 0], ms_combs: [0, 0], ctildes: [0.0042734892293045754, 0.00017759394605741118]}
    - {mu0: 0, rank: 2, ndensity: 2, num_ms_combs: 2, mus: [1, 1], ns: [2, 2], ls: [1, 1], ms_combs: [0, 0, 1, -1], ctildes: [0.00017530415440209667, 6.4762632744479548e-05, -0.00035060830880419324, -0.00012952526548895907]}
    - {mu0: 0, rank: 2, ndensity: 2, num_ms_combs: 3, mus: [1, 1], ns: [2, 2], ls: [2, 2], ms_combs: [0, 0, 1, -1, 2, -2], ctildes: [0.0026994482670183429, 0.00087024738689755782, -0.0053988965340366867, -0.0017404947737951159, 0.0053988965340366875, 0.0017404947737951163]}
    - {mu0: 0, rank: 2, ndensity: 2, num_ms_combs: 1, mus: [1, 1], ns: [2, 3], ls: [0, 0], ms_combs: [0, 0], ctildes: [0.0012193511215169814, -0.0030909747408510426]}
    - {mu0: 0, rank: 2, ndensity: 2, num_ms_combs: 2, mus: [1, 1], ns: [2, 3], ls: [1, 1], ms_combs: [0, 0, 1, -1], ctildes: [-0.00018871076733503991, -5.5885742901366527e-05, 0.00037742153467007971, 0.00011177148580273303]}
    - {mu0: 0, rank: 2, ndensity: 2, num_ms_combs: 3, mus: [1, 1], ns: [2, 3], ls: [2, 2], ms_combs: [0, 0, 1, -1, 2, -2], ctildes: [0.0056204636963395165, 0.0017901503387852007, -0.011240927392679035, -0.0035803006775704019, 0.011240927392679036, 0.0035803006775704028]}
    - {mu0: 0, rank: 2, ndensity: 2, num_ms_combs: 1, mus: [1, 1], ns: [3, 3], ls: [0, 0], ms_combs: [0, 0], ctildes: [-0.030008890192945802, -0.019790349577693898]}
    - {mu0: 0, rank: 2, ndensity: 2, num_ms_combs: 2, mus: [1, 1], ns: [3, 3], ls: [1, 1], ms_combs: [0, 0, 1, -1], ctildes: [-0.00016885176349452013, -8.7188937395758664e-05, 0.0003377035269890402, 0.0001743778747915173]}
    - {mu0: 0, rank: 2, ndensity: 2, num_ms_combs: 3, mus: [1, 1], ns: [3, 3], ls: [2, 2], ms_combs: [0, 0, 1, -1, 2, -2], ctildes: [0.012081187761887534, 0.003781368414765905, -0.024162375523775072, -0.0075627368295318109, 0.024162375523775079, 0.0075627368295318126]}
    - {mu0: 0, rank: 2, ndensity: 2, num_ms_combs: 1, mus: [1, 2], ns: [1, 1], ls: [0, 0], ms_combs: [0, 0], ctildes: [0, 0]}
    - {mu0: 0, rank: 2, ndensity: 2, num_ms_combs: 2, mus: [1, 2], ns: [1, 1], ls: [1, 1], ms_combs: [0, 0, 1, -1], ctildes: [0, 0, 0, 0]}
    - {mu0: 0, rank: 2, ndensity: 2, num_ms_combs: 3, mus: [1, 2], ns: [1, 1], ls: [2, 2], ms_combs: [0, 0, 1, -1, 2, -2], ctildes: [0, 0, 0, 0, 0, 0]}
    - {mu0: 0, rank: 2, ndensity: 2, num_ms_combs: 1, mus: [1, 2], ns: [1, 2], ls: [0, 0], ms_combs: [0, 0], ctildes: [0, 0]}
    - {mu0: 0, rank: 2, ndensity: 2, num_ms_combs: 2, mus: [1, 2], ns: [1, 2], ls: [1, 1], ms_combs: [0, 0, 1, -1], ctildes: [0, 0, 0, 0]}
    - {mu0: 0, rank: 2, ndensity: 2, num_ms_combs: 3, mus: [1, 2], ns: [1, 2], ls: [2, 2], ms_combs: [0, 0, 1, -1, 2, -2], ctildes: [0, 0, 0, 0, 0, 0]}
    - {mu0: 0, rank: 2, ndensity: 2, num_ms_combs: 1, mus: [1, 2], ns: [1, 3], ls: [0, 0], ms_combs: [0, 0], ctildes: [0, 0]}
    - {mu0: 0, rank: 2, ndensity: 2, num_ms_combs: 2, mus: [1, 2], ns: [1, 3], ls: [1, 1], ms_combs: [0, 0, 1, -1], ctildes: [0, 0, 0, 0]}
    - {mu0: 0, rank: 2, ndensity: 2, num_ms_combs: 3, mus: [1, 2], ns: [1, 3], ls: [2, 2], ms_combs: [0, 0, 1, -1, 2, -2], ctildes: [0, 0, 0, 0, 0, 0]}
    - {mu0: 0, rank: 2, ndensity: 2, num_ms_combs: 1, mus: [1, 2], ns: [2, 1], ls: [0, 0], ms_combs: [0, 0], ctildes: [0, 0]}
    - {mu0: 0, rank: 2, ndensity: 2, num_ms_combs: 2, mus: [1, 2], ns: [2, 1], ls: [1, 1], ms_combs: [0, 0, 1, -1], ctildes: [0, 0, 0, 0]}
    - {mu0: 0, rank: 2, ndensity: 2, num_ms_combs: 3, mus: [1, 2], ns: [2, 1], ls: [2, 2], ms_combs: [0, 0, 1, -1, 2, -2], ctildes: [0, 0, 0, 0, 0, 0]}
    - {mu0: 0, rank: 2, ndensity: 2, num_ms_combs: 1, mus: [1, 2], ns: [2, 2], ls: [0, 0], ms_combs: [0, 0], ctildes: [0, 0]}
    - {mu0: 0, rank: 2, ndensity: 2, num_ms_combs: 2, mus: [1, 2], ns: [2, 2], ls: [1, 1], ms_combs: [0, 0, 1, -1], ctildes: [0, 0, 0, 0]}
    - {mu0: 0, rank: 2, ndensity: 2, num_ms_combs: 3, mus: [1, 2], ns: [2, 2], ls: [2, 2], ms_combs: [0, 0, 1, -1, 2, -2], ctildes: [0, 0, 0, 0, 0, 0]}
    - {mu0: 0, rank: 2, ndensity: 2, num_ms_combs: 1, mus: [1, 2], ns: [2, 3], ls: [0, 0], ms_combs: [0, 0], ctildes: [0, 0]}
    - {mu0: 0, rank: 2, ndensity: 2, num_ms_combs: 2, mus: [1, 2], ns: [2, 3], ls: [1, 1], ms_combs: [0, 0, 1, -1], ctildes: [0, 0, 0, 0]}
    - {mu0: 0, rank: 2, ndensity: 2, num_ms_combs: 3, mus: [1, 2], ns: [2, 3], ls: [2, 2], ms_combs: [0, 0, 1, -1, 2, -2], ctildes: [0, 0, 0, 0, 0, 0]}
    - {mu0: 0, rank: 2, ndensity: 2, num_ms_combs: 1, mus: [1, 2], ns: [3, 1], ls: [0, 0], ms_combs: [0, 0], ctildes: [0, 0]}
    - {mu0: 0, rank: 2, ndensity: 2, num_ms_combs: 2, mus: [1, 2], ns: [3, 1], ls: [1, 1], ms_combs: [0, 0, 1, -1], ctildes: [0, 0, 0, 0]}
    - {mu0: 0, rank: 2, ndensity: 2, num_ms_combs: 3, mus: [1, 2], ns: [3, 1], ls: [2, 2], ms_combs: [0, 0, 1, -1, 2, -2], ctildes: [0, 0, 0, 0, 0, 0]}
    - {mu0: 0, rank: 2, ndensity: 2, num_ms_combs: 1, mus: [1, 2], ns: [3, 2], ls: [0, 0], ms_combs: [0, 0], ctildes: [0, 0]}
    - {mu0: 0, rank: 2, ndensity: 2, num_ms_combs: 2, mus: [1, 2], ns: [3, 2], ls: [1, 1], ms_combs: [0, 0, 1, -1], ctildes: [0, 0, 0, 0]}
    - {mu0: 0, rank: 2, ndensity: 2, num_ms_combs: 3, mus: [1, 2], ns: [3, 2], ls: [2, 2], ms_combs: [0, 0, 1, -1, 2, -2], ctildes: [0, 0, 0, 0, 0, 0]}
    - {mu0: 0, rank: 2, ndensity: 2, num_ms_combs: 1, mus: [1, 2], ns: [3, 3], ls: [0, 0], ms_combs: [0, 0], ctildes: [0, 0]}
    - {mu0: 0, rank: 2, ndensity: 2, num_ms_combs: 2, mus: [1, 2], ns: [3, 3], ls: [1, 1], ms_combs: [0, 0, 1, -1], ctildes: [0, 0, 0, 0]}
    - {mu0: 0, rank: 2, ndensity: 2, num_ms_combs: 3, mus: [1, 2], ns: [3, 3], ls: [2, 2], ms_combs: [0, 0, 1, -1, 2, -2], ctildes: [0, 0, 0, 0, 0, 0]}
    - {mu0: 0, rank: 2, ndensity: 2, num_ms_combs: 1, mus: [2, 2], ns: [1, 1], ls: [0, 0], ms_combs: [0, 0], ctildes: [0, 0]}
    - {mu0: 0, rank: 2, ndensity: 2, num_ms_combs: 2, mus: [2, 2], ns: [1, 1], ls: [1, 1], ms_combs: [0, 0, 1, -1], ctildes: [0, 0, 0, 0]}
    - {mu0: 0, rank: 2, ndensity: 2, num_ms_combs: 3, mus: [2, 2], ns: [1, 1], ls: [2, 2], ms_combs: [0, 0, 1, -1, 2, -2], ctildes: [0, 0, 0, 0, 0, 0]}
    - {mu0: 0, rank: 2, ndensity: 2, num_ms_combs: 1, mus: [2, 2], ns: [1, 2], ls: [0, 0], ms_combs: [0, 0], ctildes: [0, 0]}
    - {mu0: 0, rank: 2, ndensity: 2, num_ms_combs: 2, mus: [2, 2], ns: [1, 2], ls: [1, 1], ms_combs: [0, 0, 1, -1], ctildes: [0, 0, 0, 0]}
    - {mu0: 0, rank: 2, ndensity: 2, num_ms_combs: 3, mus: [2, 2], ns: [1, 2], ls: [2, 2], ms_combs: [0, 0, 1, -1, 2, -2], ctildes: [0, 0, 0, 0, 0, 0]}
    - {mu0: 0, rank: 2, ndensity: 2, num_ms_combs: 1, mus: [2, 2], ns: [1, 3], ls: [0, 0], ms_combs: [0, 0], ctildes: [0, 0]}
    - {mu0: 0, rank: 2, ndensity: 2, num_ms_combs: 2, mus: [2, 2], ns: [1, 3], ls: [1, 1], ms_combs: [0, 0, 1, -1], ctildes: [0, 0, 0, 0]}
    - {mu0: 0, rank: 2, ndensity: 2, num_ms_combs: 3, mus: [2, 2], ns: [1, 3], ls: [2, 2], ms_combs: [0, 0, 1, -1, 2, -2], ctildes: [0, 0, 0, 0, 0, 0]}
    - {mu0: 0, rank: 2, ndensity: 2, num_ms_combs: 1, mus: [2, 2], ns: [2, 2], ls: [0, 0], ms_combs: [0, 0], ctildes: [0, 0]}
    - {mu0: 0, rank: 2, ndensity: 2, num_ms_combs: 2, mus: [2, 2], ns: [2, 2], ls: [1, 1], ms_combs: [0, 0, 1, -1], ctildes: [0, 0, 0, 0]}
    - {mu0: 0, rank: 2, ndensity: 2, num_ms_combs: 3, mus: [2, 2], ns: [2, 2], ls: [2, 2], ms_combs: [0, 0, 1, -1, 2, -2], ctildes: [0, 0, 0, 0, 0, 0]}
    - {mu0: 0, rank: 2, ndensity: 2, num_ms_combs: 1, mus: [2, 2], ns: [2, 3], ls: [0, 0], ms_combs: [0, 0], ctildes: [0, 0]}
    - {mu0: 0, rank: 2, ndensity: 2, num_ms_combs: 2, mus: [2, 2], ns: [2, 3], ls: [1, 1], ms_combs: [0, 0, 1, -1], ctildes: [0, 0, 0, 0]}
    - {mu0: 0, rank: 2, ndensity: 2, num_ms_combs: 3, mus: [2, 2], ns: [2, 3], ls: [2, 2], ms_combs: [0, 0, 1, -1, 2, -2], ctildes: [0, 0, 0, 0, 0, 0]}
    - {mu0: 0, rank: 2, ndensity: 2, num_ms_combs: 1, mus: [2, 2], ns: [3, 3], ls: [0, 0], ms_combs: [0, 0], ctildes: [0, 0]}
    - {mu0: 0, rank: 2, ndensity: 2, num_ms_combs: 2, mus: [2, 2], ns: [3, 3], ls: [1, 1], ms_combs: [0, 0, 1, -1], ctildes: [0, 0, 0, 0]}
    - {mu0: 0, rank: 2, ndensity: 2, num_ms_combs: 3, mus: [2, 2], ns: [3, 3], ls: [2, 2], ms_combs: [0, 0, 1, -1, 2, -2], ctildes: [0, 0, 0, 0, 0, 0]}
    - {mu0: 0, rank: 3, ndensity: 2, num_ms_combs: 1, mus: [0, 0, 0], ns: [1, 1, 1], ls: [0, 0, 0], ms_combs: [0, 0, 0], ctildes: [0, 0]}
    - {mu0: 0, rank: 3, ndensity: 2, num_ms_combs: 2, mus: [0, 0, 0], ns: [1, 1, 1], ls: [0, 1, 1], ms_combs: [0, 0, 0, 0, 1, -1], ctildes: [0, 0, 0, 0]}
    - {mu0: 0, rank: 3, ndensity: 2, num_ms_combs: 3, mus: [0, 0, 0], ns: [1, 1, 1], ls: [0, 2, 2], ms_combs: [0, 0, 0, 0, 1, -1, 0, 2, -2], ctildes: [0, 0, 0, 0, 0, 0]}
    - {mu0: 0, rank: 3, ndensity: 2, num_ms_combs: 4, mus: [0, 0, 0], ns: [1, 1, 1], ls: [1, 1, 2], ms_combs: [-1, 1, 0, 0, 0, 0, 0, 1, -1, 1, 1, -2], ctildes: [0, 0, 0, 0, 0, 0, 0, 0]}
    - {mu0: 0, rank: 3, ndensity: 2, num_ms_combs: 5, mus: [0, 0, 0], ns: [1, 1, 1], ls: [2, 2, 2], ms_combs: [-2, 0, 2, -2, 1, 1, -1, -1, 2, -1, 0, 1, 0, 0, 0], ctildes: [0, 0, 0, 0, 0, 0, 0, 0, 0, 0]}
    - {mu0: 0, rank: 3, ndensity: 2, num_ms_combs: 1, mus: [0, 0, 0], ns: [1, 1, 2], ls: [0, 0, 0], ms_combs: [0, 0, 0], ctildes: [0, 0]}
    - {mu0: 0, rank: 3, ndensity: 2, num_ms_combs: 2, mus: [0, 0, 0], ns: [1, 1, 2], ls: [0, 1, 1], ms_combs: [0, 0, 0, 0, 1, -1], ctildes: [0, 0, 0, 0]}
    - {mu0: 0, rank: 3, ndensity: 2, num_ms_combs: 3, mus: [0, 0, 0], ns: [1, 1, 2], ls: [0, 2, 2], ms_combs: [0, 0, 0, 0, 1, -1, 0, 2, -2], ctildes: [0, 0, 0, 0, 0, 0]}
    - {mu0: 0, rank: 3, ndensity: 2, num_ms_combs: 2, mus: [0, 0, 0], ns: [1, 1, 2], ls: [1, 1, 0], ms_combs: [0, 0, 0, 1, -1, 0], ctildes: [0, 0, 0, 0]}
    - {mu0: 0, rank: 3, ndensity: 2, num_ms_combs: 4, mus: [0, 0, 0], ns: [1, 1, 2], ls: [1, 1, 2], ms_combs: [-1, 1, 0, 0, 0, 0, 0, 1, -1, 1, 1, -2], ctildes: [0, 0, 0, 0, 0, 0, 0, 0]}
    - {mu0: 0, rank: 3, ndensity: 2, num_ms_combs: 5, mus: [0, 0, 0], ns: [1, 1, 2], ls: [1, 2, 1], ms_combs: [0, 0, 0, 0, 1, -1, 1, -2, 1, 1, -1, 0, 1, 0, -1], ctildes: [0, 0, 0, 0, 0, 0, 0, 0, 0, 0]}
    - {mu0: 0, rank: 3, ndensity: 2, num_ms_combs: 3, mus: [0, 0, 0], ns: [1, 1, 2], ls: [2, 2, 0], ms_combs: [0, 0, 0, 1, -1, 0, 2, -2, 0], ctildes: [0, 0, 0, 0, 0, 0]}
    - {mu0: 0, rank: 3, ndensity: 2, num_ms_combs: 8, mus: [0, 0, 0], ns: [1, 1, 2], ls: [2, 2, 2], ms_combs: [-2, 1, 1, -2, 2, 0, -1, 1, 0, -1, 2, -1, 0, 0, 0, 0, 1, -1, 0, 2, -2, 1, 1, -2], ctildes: [0, 0, 0, 0, 0, 0, 0, 0, 0, 0, 0, 0, 0, 0, 0, 0]}
    - {mu0: 0, rank: 3, ndensity: 2, num_ms_combs: 1, mus: [0, 0, 0], ns: [1, 2, 2], ls: [0, 0, 0], ms_combs: [0, 0, 0], ctildes: [0, 0]}
    - {mu0: 0, rank: 3, ndensity: 2, num_ms_combs: 2, mus: [0, 0, 0], ns: [1, 2, 2], ls: [0, 1, 1], ms_combs: [0, 0, 0, 0, 1, -1], ctildes: [0, 0, 0, 0]}
    - {mu0: 0, rank: 3, ndensity: 2, num_ms_combs: 3, mus: [0, 0, 0], ns: [1, 2, 2], ls: [0, 2, 2], ms_combs: [0, 0, 0, 0, 1, -1, 0, 2, -2], ctildes: [0, 0, 0, 0, 0, 0]}
    - {mu0: 0, rank: 3, ndensity: 2, num_ms_combs: 2, mus: [0, 0, 0], ns: [1, 2, 2], ls: [1, 0, 1], ms_combs: [0, 0, 0, 1, 0, -1], ctildes: [0, 0, 0, 0]}
    - {mu0: 0, rank: 3, ndensity: 2, num_ms_combs: 5, mus: [0, 0, 0], ns: [1, 2, 2], ls: [1, 1, 2], ms_combs: [0, 0, 0, 0, 1, -1, 1, -1, 0, 1, 0, -1, 1, 1, -2], ctildes: [0, 0, 0, 0, 0, 0, 0, 0, 0, 0]}
    - {mu0: 0, rank: 3, ndensity: 2, num_ms_combs: 3, mus: [0, 0, 0], ns: [1, 2, 2], ls: [2, 0, 2], ms_combs: [0, 0, 0, 1, 0, -1, 2, 0, -2], ctildes: [0, 0, 0, 0, 0, 0]}
    - {mu0: 0, rank: 3, ndensity: 2, num_ms_combs: 4, mus: [0, 0, 0], ns: [1, 2, 2], ls: [2, 1, 1], ms_combs: [0, -1, 1, 0, 0, 0, 1, -1, 0, 2, -1, -1], ctildes: [0, 0, 0, 0, 0, 0, 0, 0]}
    - {mu0: 0, rank: 3, ndensity: 2, num_ms_combs: 7, mus: [0, 0, 0], ns: [1, 2, 2], ls: [2, 2, 2], ms_combs: [0, -2, 2, 0, -1, 1, 0, 0, 0, 1, -2, 1, 1, -1, 0, 2, -2, 0, 2, -1, -1], ctildes: [0, 0, 0, 0, 0, 0, 0, 0, 0, 0, 0, 0, 0, 0]}
    - {mu0: 0, rank: 3, ndensity: 2, num_ms_combs: 1, mus: [0, 0, 0], ns: [2, 2, 2], ls: [0, 0, 0], ms_combs: [0, 0, 0], ctildes: [0, 0]}
    - {mu0: 0, rank: 3, ndensity: 2, num_ms_combs: 2, mus: [0, 0, 0], ns: [2, 2, 2], ls: [0, 1, 1], ms_combs: [0, 0, 0, 0, 1, -1], ctildes: [0, 0, 0, 0]}
    - {mu0: 0, rank: 3, ndensity: 2, num_ms_combs: 3, mus: [0, 0, 0], ns: [2, 2, 2], ls: [0, 2, 2], ms_combs: [0, 0, 0, 0, 1, -1, 0, 2, -2], ctildes: [0, 0, 0, 0, 0, 0]}
    - {mu0: 0, rank: 3, ndensity: 2, num_ms_combs: 4, mus: [0, 0, 0], ns: [2, 2, 2], ls: [1, 1, 2], ms_combs: [-1, 1, 0, 0, 0, 0, 0, 1, -1, 1, 1, -2], ctildes: [0, 0, 0, 0, 0, 0, 0, 0]}
    - {mu0: 0, rank: 3, ndensity: 2, num_ms_combs: 5, mus: [0, 0, 0], ns: [2, 2, 2], ls: [2, 2, 2], ms_combs: [-2, 0, 2, -2, 1, 1, -1, -1, 2, -1, 0, 1, 0, 0, 0], ctildes: [0, 0, 0, 0, 0, 0, 0, 0, 0, 0]}
    - {mu0: 0, rank: 3, ndensity: 2, num_ms_combs: 1, mus: [0, 0, 1], ns: [1, 1, 1], ls: [0, 0, 0], ms_combs: [0, 0, 0], ctildes: [0, 0]}
    - {mu0: 0, rank: 3, ndensity: 2, num_ms_combs: 2, mus: [0, 0, 1], ns: [1, 1, 1], ls: [0, 1, 1], ms_combs: [0, 0, 0, 0, 1, -1], ctildes: [0, 0, 0, 0]}
    - {mu0: 0, rank: 3, ndensity: 2, num_ms_combs: 3, mus: [0, 0, 1], ns: [1, 1, 1], ls: [0, 2, 2], ms_combs: [0, 0, 0, 0, 1, -1, 0, 2, -2], ctildes: [0, 0, 0, 0, 0, 0]}
    - {mu0: 0, rank: 3, ndensity: 2, num_ms_combs: 2, mus: [0, 0, 1], ns: [1, 1, 1], ls: [1, 1, 0], ms_combs: [0, 0, 0, 1, -1, 0], ctildes: [0, 0, 0, 0]}
    - {mu0: 0, rank: 3, ndensity: 2, num_ms_combs: 4, mus: [0, 0, 1], ns: [1, 1, 1], ls: [1, 1, 2], ms_combs: [-1, 1, 0, 0, 0, 0, 0, 1, -1, 1, 1, -2], ctildes: [0, 0, 0, 0, 0, 0, 0, 0]}
    - {mu0: 0, rank: 3, ndensity: 2, num_ms_combs: 5, mus: [0, 0, 1], ns: [1, 1, 1], ls: [1, 2, 1], ms_combs: [0, 0, 0, 0, 1, -1, 1, -2, 1, 1, -1, 0, 1, 0, -1], ctildes: [0, 0, 0, 0, 0, 0, 0, 0, 0, 0]}
    - {mu0: 0, rank: 3, ndensity: 2, num_ms_combs: 3, mus: [0, 0, 1], ns: [1, 1, 1], ls: [2, 2, 0], ms_combs: [0, 0, 0, 1, -1, 0, 2, -2, 0], ctildes: [0, 0, 0, 0, 0, 0]}
    - {mu0: 0, rank: 3, ndensity: 2, num_ms_combs: 8, mus: [0, 0, 1], ns: [1, 1, 1], ls: [2, 2, 2], ms_combs: [-2, 1, 1, -2, 2, 0, -1, 1, 0, -1, 2, -1, 0, 0, 0, 0, 1, -1, 0, 2, -2, 1, 1, -2], ctildes: [0, 0, 0, 0, 0, 0, 0, 0, 0, 0, 0, 0, 0, 0, 0, 0]}
    - {mu0: 0, rank: 3, ndensity: 2, num_ms_combs: 1, mus: [0, 0, 1], ns: [1, 1, 2], ls: [0, 0, 0], ms_combs: [0, 0, 0], ctildes: [0, 0]}
    - {mu0: 0, rank: 3, ndensity: 2, num_ms_combs: 2, mus: [0, 0, 1], ns: [1, 1, 2], ls: [0, 1, 1], ms_combs: [0, 0, 0, 0, 1, -1], ctildes: [0, 0, 0, 0]}
    - {mu0: 0, rank: 3, ndensity: 2, num_ms_combs: 3, mus: [0, 0, 1], ns: [1, 1, 2], ls: [0, 2, 2], ms_combs: [0, 0, 0, 0, 1, -1, 0, 2, -2], ctildes: [0, 0, 0, 0, 0, 0]}
    - {mu0: 0, rank: 3, ndensity: 2, num_ms_combs: 2, mus: [0, 0, 1], ns: [1, 1, 2], ls: [1, 1, 0], ms_combs: [0, 0, 0, 1, -1, 0], ctildes: [0, 0, 0, 0]}
    - {mu0: 0, rank: 3, ndensity: 2, num_ms_combs: 4, mus: [0, 0, 1], ns: [1, 1, 2], ls: [1, 1, 2], ms_combs: [-1, 1, 0, 0, 0, 0, 0, 1, -1, 1, 1, -2], ctildes: [0, 0, 0, 0, 0, 0, 0, 0]}
    - {mu0: 0, rank: 3, ndensity: 2, num_ms_combs: 5, mus: [0, 0, 1], ns: [1, 1, 2], ls: [1, 2, 1], ms_combs: [0, 0, 0, 0, 1, -1, 1, -2, 1, 1, -1, 0, 1, 0, -1], ctildes: [0, 0, 0, 0, 0, 0, 0, 0, 0, 0]}
    - {mu0: 0, rank: 3, ndensity: 2, num_ms_combs: 3, mus: [0, 0, 1], ns: [1, 1, 2], ls: [2, 2, 0], ms_combs: [0, 0, 0, 1, -1, 0, 2, -2, 0], ctildes: [0, 0, 0, 0, 0, 0]}
    - {mu0: 0, rank: 3, ndensity: 2, num_ms_combs: 8, mus: [0, 0, 1], ns: [1, 1, 2], ls: [2, 2, 2], ms_combs: [-2, 1, 1, -2, 2, 0, -1, 1, 0, -1, 2, -1, 0, 0, 0, 0, 1, -1, 0, 2, -2, 1, 1, -2], ctildes: [0, 0, 0, 0, 0, 0, 0, 0, 0, 0, 0, 0, 0, 0, 0, 0]}
    - {mu0: 0, rank: 3, ndensity: 2, num_ms_combs: 1, mus: [0, 0, 1], ns: [1, 2, 1], ls: [0, 0, 0], ms_combs: [0, 0, 0], ctildes: [0, 0]}
    - {mu0: 0, rank: 3, ndensity: 2, num_ms_combs: 2, mus: [0, 0, 1], ns: [1, 2, 1], ls: [0, 1, 1], ms_combs: [0, 0, 0, 0, 1, -1], ctildes: [0, 0, 0, 0]}
    - {mu0: 0, rank: 3, ndensity: 2, num_ms_combs: 3, mus: [0, 0, 1], ns: [1, 2, 1], ls: [0, 2, 2], ms_combs: [0, 0, 0, 0, 1, -1, 0, 2, -2], ctildes: [0, 0, 0, 0, 0, 0]}
    - {mu0: 0, rank: 3, ndensity: 2, num_ms_combs: 2, mus: [0, 0, 1], ns: [1, 2, 1], ls: [1, 0, 1], ms_combs: [0, 0, 0, 1, 0, -1], ctildes: [0, 0, 0, 0]}
    - {mu0: 0, rank: 3, ndensity: 2, num_ms_combs: 2, mus: [0, 0, 1], ns: [1, 2, 1], ls: [1, 1, 0], ms_combs: [0, 0, 0, 1, -1, 0], ctildes: [0, 0, 0, 0]}
    - {mu0: 0, rank: 3, ndensity: 2, num_ms_combs: 5, mus: [0, 0, 1], ns: [1, 2, 1], ls: [1, 1, 2], ms_combs: [0, 0, 0, 0, 1, -1, 1, -1, 0, 1, 0, -1, 1, 1, -2], ctildes: [0, 0, 0, 0, 0, 0, 0, 0, 0, 0]}
    - {mu0: 0, rank: 3, ndensity: 2, num_ms_combs: 5, mus: [0, 0, 1], ns: [1, 2, 1], ls: [1, 2, 1], ms_combs: [0, 0, 0, 0, 1, -1, 1, -2, 1, 1, -1, 0, 1, 0, -1], ctildes: [0, 0, 0, 0, 0, 0, 0, 0, 0, 0]}
    - {mu0: 0, rank: 3, ndensity: 2, num_ms_combs: 3, mus: [0, 0, 1], ns: [1, 2, 1], ls: [2, 0, 2], ms_combs: [0, 0, 0, 1, 0, -1, 2, 0, -2], ctildes: [0, 0, 0, 0, 0, 0]}
    - {mu0: 0, rank: 3, ndensity: 2, num_ms_combs: 5, mus: [0, 0, 1], ns: [1, 2, 1], ls: [2, 1, 1], ms_combs: [0, 0, 0, 0, 1, -1, 1, -1, 0, 1, 0, -1, 2, -1, -1], ctildes: [0, 0, 0, 0, 0, 0, 0, 0, 0, 0]}
    - {mu0: 0, rank: 3, ndensity: 2, num_ms_combs: 3, mus: [0, 0, 1], ns: [1, 2, 1], ls: [2, 2, 0], ms_combs: [0, 0, 0, 1, -1, 0, 2, -2, 0], ctildes: [0, 0, 0, 0, 0, 0]}
    - {mu0: 0, rank: 3, ndensity: 2, num_ms_combs: 10, mus: [0, 0, 1], ns: [1, 2, 1], ls: [2, 2, 2], ms_combs: [0, 0, 0, 0, 1, -1, 0, 2, -2, 1, -2, 1, 1, -1, 0, 1, 0, -1, 1, 1, -2, 2, -2, 0, 2, -1, -1, 2, 0, -2], ctildes: [0, 0, 0, 0, 0, 0, 0, 0, 0, 0, 0, 0, 0, 0, 0, 0, 0, 0, 0, 0]}
    - {mu0: 0, rank: 3, ndensity: 2, num_ms_combs: 1, mus: [0, 0, 1], ns: [1, 2, 2], ls: [0, 0, 0], ms_combs: [0, 0, 0], ctildes: [0, 0]}
    - {mu0: 0, rank: 3, ndensity: 2, num_ms_combs: 2, mus: [0, 0, 1], ns: [1, 2, 2], ls: [0, 1, 1], ms_combs: [0, 0, 0, 0, 1, -1], ctildes: [0, 0, 0, 0]}
    - {mu0: 0, rank: 3, ndensity: 2, num_ms_combs: 3, mus: [0, 0, 1], ns: [1, 2, 2], ls: [0, 2, 2], ms_combs: [0, 0, 0, 0, 1, -1, 0, 2, -2], ctildes: [0, 0, 0, 0, 0, 0]}
    - {mu0: 0, rank: 3, ndensity: 2, num_ms_combs: 2, mus: [0, 0, 1], ns: [1, 2, 2], ls: [1, 0, 1], ms_combs: [0, 0, 0, 1, 0, -1], ctildes: [0, 0, 0, 0]}
    - {mu0: 0, rank: 3, ndensity: 2, num_ms_combs: 2, mus: [0, 0, 1], ns: [1, 2, 2], ls: [1, 1, 0], ms_combs: [0, 0, 0, 1, -1, 0], ctildes: [0, 0, 0, 0]}
    - {mu0: 0, rank: 3, ndensity: 2, num_ms_combs: 5, mus: [0, 0, 1], ns: [1, 2, 2], ls: [1, 1, 2], ms_combs: [0, 0, 0, 0, 1, -1, 1, -1, 0, 1, 0, -1, 1, 1, -2], ctildes: [0, 0, 0, 0, 0, 0, 0, 0, 0, 0]}
    - {mu0: 0, rank: 3, ndensity: 2, num_ms_combs: 5, mus: [0, 0, 1], ns: [1, 2, 2], ls: [1, 2, 1], ms_combs: [0, 0, 0, 0, 1, -1, 1, -2, 1, 1, -1, 0, 1, 0, -1], ctildes: [0, 0, 0, 0, 0, 0, 0, 0, 0, 0]}
    - {mu0: 0, rank: 3, ndensity: 2, num_ms_combs: 3, mus: [0, 0, 1], ns: [1, 2, 2], ls: [2, 0, 2], ms_combs: [0, 0, 0, 1, 0, -1, 2, 0, -2], ctildes: [0, 0, 0, 0, 0, 0]}
    - {mu0: 0, rank: 3, ndensity: 2, num_ms_combs: 5, mus: [0, 0, 1], ns: [1, 2, 2], ls: [2, 1, 1], ms_combs: [0, 0, 0, 0, 1, -1, 1, -1, 0, 1, 0, -1, 2, -1, -1], ctildes: [0, 0, 0, 0, 0, 0, 0, 0, 0, 0]}
    - {mu0: 0, rank: 3, ndensity: 2, num_ms_combs: 3, mus: [0, 0, 1], ns: [1, 2, 2], ls: [2, 2, 0], ms_combs: [0, 0, 0, 1, -1, 0, 2, -2, 0], ctildes: [0, 0, 0, 0, 0, 0]}
    - {mu0: 0, rank: 3, ndensity: 2, num_ms_combs: 10, mus: [0, 0, 1], ns: [1, 2, 2], ls: [2, 2, 2], ms_combs: [0, 0, 0, 0, 1, -1, 0, 2, -2, 1, -2, 1, 1, -1, 0, 1, 0, -1, 1, 1, -2, 2, -2, 0, 2, -1, -1, 2, 0, -2], ctildes: [0, 0, 0, 0, 0, 0, 0, 0, 0, 0, 0, 0, 0, 0, 0, 0, 0, 0, 0, 0]}
    - {mu0: 0, rank: 3, ndensity: 2, num_ms_combs: 1, mus: [0, 0, 1], ns: [2, 2, 1], ls: [0, 0, 0], ms_combs: [0, 0, 0], ctildes: [0, 0]}
    - {mu0: 0, rank: 3, ndensity: 2, num_ms_combs: 2, mus: [0, 0, 1], ns: [2, 2, 1], ls: [0, 1, 1], ms_combs: [0, 0, 0, 0, 1, -1], ctildes: [0, 0, 0, 0]}
    - {mu0: 0, rank: 3, ndensity: 2, num_ms_combs: 3, mus: [0, 0, 1], ns: [2, 2, 1], ls: [0, 2, 2], ms_combs: [0, 0, 0, 0, 1, -1, 0, 2, -2], ctildes: [0, 0, 0, 0, 0, 0]}
    - {mu0: 0, rank: 3, ndensity: 2, num_ms_combs: 2, mus: [0, 0, 1], ns: [2, 2, 1], ls: [1, 1, 0], ms_combs: [0, 0, 0, 1, -1, 0], ctildes: [0, 0, 0, 0]}
    - {mu0: 0, rank: 3, ndensity: 2, num_ms_combs: 4, mus: [0, 0, 1], ns: [2, 2, 1], ls: [1, 1, 2], ms_combs: [-1, 1, 0, 0, 0, 0, 0, 1, -1, 1, 1, -2], ctildes: [0, 0, 0, 0, 0, 0, 0, 0]}
    - {mu0: 0, rank: 3, ndensity: 2, num_ms_combs: 5, mus: [0, 0, 1], ns: [2, 2, 1], ls: [1, 2, 1], ms_combs: [0, 0, 0, 0, 1, -1, 1, -2, 1, 1, -1, 0, 1, 0, -1], ctildes: [0, 0, 0, 0, 0, 0, 0, 0, 0, 0]}
    - {mu0: 0, rank: 3, ndensity: 2, num_ms_combs: 3, mus: [0, 0, 1], ns: [2, 2, 1], ls: [2, 2, 0], ms_combs: [0, 0, 0, 1, -1, 0, 2, -2, 0], ctildes: [0, 0, 0, 0, 0, 0]}
    - {mu0: 0, rank: 3, ndensity: 2, num_ms_combs: 8, mus: [0, 0, 1], ns: [2, 2, 1], ls: [2, 2, 2], ms_combs: [-2, 1, 1, -2, 2, 0, -1, 1, 0, -1, 2, -1, 0, 0, 0, 0, 1, -1, 0, 2, -2, 1, 1, -2], ctildes: [0, 0, 0, 0, 0, 0, 0, 0, 0, 0, 0, 0, 0, 0, 0, 0]}
    - {mu0: 0, rank: 3, ndensity: 2, num_ms_combs: 1, mus: [0, 0, 1], ns: [2, 2, 2], ls: [0, 0, 0], ms_combs: [0, 0, 0], ctildes: [0, 0]}
    - {mu0: 0, rank: 3, ndensity: 2, num_ms_combs: 2, mus: [0, 0, 1], ns: [2, 2, 2], ls: [0, 1, 1], ms_combs: [0, 0, 0, 0, 1, -1], ctildes: [0, 0, 0, 0]}
    - {mu0: 0, rank: 3, ndensity: 2, num_ms_combs: 3, mus: [0, 0, 1], ns: [2, 2, 2], ls: [0, 2, 2], ms_combs: [0, 0, 0, 0, 1, -1, 0, 2, -2], ctildes: [0, 0, 0, 0, 0, 0]}
    - {mu0: 0, rank: 3, ndensity: 2, num_ms_combs: 2, mus: [0, 0, 1], ns: [2, 2, 2], ls: [1, 1, 0], ms_combs: [0, 0, 0, 1, -1, 0], ctildes: [0, 0, 0, 0]}
    - {mu0: 0, rank: 3, ndensity: 2, num_ms_combs: 4, mus: [0, 0, 1], ns: [2, 2, 2], ls: [1, 1, 2], ms_combs: [-1, 1, 0, 0, 0, 0, 0, 1, -1, 1, 1, -2], ctildes: [0, 0, 0, 0, 0, 0, 0, 0]}
    - {mu0: 0, rank: 3, ndensity: 2, num_ms_combs: 5, mus: [0, 0, 1], ns: [2, 2, 2], ls: [1, 2, 1], ms_combs: [0, 0, 0, 0, 1, -1, 1, -2, 1, 1, -1, 0, 1, 0, -1], ctildes: [0, 0, 0, 0, 0, 0, 0, 0, 0, 0]}
    - {mu0: 0, rank: 3, ndensity: 2, num_ms_combs: 3, mus: [0, 0, 1], ns: [2, 2, 2], ls: [2, 2, 0], ms_combs: [0, 0, 0, 1, -1, 0, 2, -2, 0], ctildes: [0, 0, 0, 0, 0, 0]}
    - {mu0: 0, rank: 3, ndensity: 2, num_ms_combs: 8, mus: [0, 0, 1], ns: [2, 2, 2], ls: [2, 2, 2], ms_combs: [-2, 1, 1, -2, 2, 0, -1, 1, 0, -1, 2, -1, 0, 0, 0, 0, 1, -1, 0, 2, -2, 1, 1, -2], ctildes: [0, 0, 0, 0, 0, 0, 0, 0, 0, 0, 0, 0, 0, 0, 0, 0]}
    - {mu0: 0, rank: 3, ndensity: 2, num_ms_combs: 1, mus: [0, 0, 2], ns: [1, 1, 1], ls: [0, 0, 0], ms_combs: [0, 0, 0], ctildes: [0, 0]}
    - {mu0: 0, rank: 3, ndensity: 2, num_ms_combs: 2, mus: [0, 0, 2], ns: [1, 1, 1], ls: [0, 1, 1], ms_combs: [0, 0, 0, 0, 1, -1], ctildes: [0, 0, 0, 0]}
    - {mu0: 0, rank: 3, ndensity: 2, num_ms_combs: 3, mus: [0, 0, 2], ns: [1, 1, 1], ls: [0, 2, 2], ms_combs: [0, 0, 0, 0, 1, -1, 0, 2, -2], ctildes: [0, 0, 0, 0, 0, 0]}
    - {mu0: 0, rank: 3, ndensity: 2, num_ms_combs: 2, mus: [0, 0, 2], ns: [1, 1, 1], ls: [1, 1, 0], ms_combs: [0, 0, 0, 1, -1, 0], ctildes: [0, 0, 0, 0]}
    - {mu0: 0, rank: 3, ndensity: 2, num_ms_combs: 4, mus: [0, 0, 2], ns: [1, 1, 1], ls: [1, 1, 2], ms_combs: [-1, 1, 0, 0, 0, 0, 0, 1, -1, 1, 1, -2], ctildes: [0, 0, 0, 0, 0, 0, 0, 0]}
    - {mu0: 0, rank: 3, ndensity: 2, num_ms_combs: 5, mus: [0, 0, 2], ns: [1, 1, 1], ls: [1, 2, 1], ms_combs: [0, 0, 0, 0, 1, -1, 1, -2, 1, 1, -1, 0, 1, 0, -1], ctildes: [0, 0, 0, 0, 0, 0, 0, 0, 0, 0]}
    - {mu0: 0, rank: 3, ndensity: 2, num_ms_combs: 3, mus: [0, 0, 2], ns: [1, 1, 1], ls: [2, 2, 0], ms_combs: [0, 0, 0, 1, -1, 0, 2, -2, 0], ctildes: [0, 0, 0, 0, 0, 0]}
    - {mu0: 0, rank: 3, ndensity: 2, num_ms_combs: 8, mus: [0, 0, 2], ns: [1, 1, 1], ls: [2, 2, 2], ms_combs: [-2, 1, 1, -2, 2, 0, -1, 1, 0, -1, 2, -1, 0, 0, 0, 0, 1, -1, 0, 2, -2, 1, 1, -2], ctildes: [0, 0, 0, 0, 0, 0, 0, 0, 0, 0, 0, 0, 0, 0, 0, 0]}
    - {mu0: 0, rank: 3, ndensity: 2, num_ms_combs: 1, mus: [0, 0, 2], ns: [1, 1, 2], ls: [0, 0, 0], ms_combs: [0, 0, 0], ctildes: [0, 0]}
    - {mu0: 0, rank: 3, ndensity: 2, num_ms_combs: 2, mus: [0, 0, 2], ns: [1, 1, 2], ls: [0, 1, 1], ms_combs: [0, 0, 0, 0, 1, -1], ctildes: [0, 0, 0, 0]}
    - {mu0: 0, rank: 3, ndensity: 2, num_ms_combs: 3, mus: [0, 0, 2], ns: [1, 1, 2], ls: [0, 2, 2], ms_combs: [0, 0, 0, 0, 1, -1, 0, 2, -2], ctildes: [0, 0, 0, 0, 0, 0]}
    - {mu0: 0, rank: 3, ndensity: 2, num_ms_combs: 2, mus: [0, 0, 2], ns: [1, 1, 2], ls: [1, 1, 0], ms_combs: [0, 0, 0, 1, -1, 0], ctildes: [0, 0, 0, 0]}
    - {mu0: 0, rank: 3, ndensity: 2, num_ms_combs: 4, mus: [0, 0, 2], ns: [1, 1, 2], ls: [1, 1, 2], ms_combs: [-1, 1, 0, 0, 0, 0, 0, 1, -1, 1, 1, -2], ctildes: [0, 0, 0, 0, 0, 0, 0, 0]}
    - {mu0: 0, rank: 3, ndensity: 2, num_ms_combs: 5, mus: [0, 0, 2], ns: [1, 1, 2], ls: [1, 2, 1], ms_combs: [0, 0, 0, 0, 1, -1, 1, -2, 1, 1, -1, 0, 1, 0, -1], ctildes: [0, 0, 0, 0, 0, 0, 0, 0, 0, 0]}
    - {mu0: 0, rank: 3, ndensity: 2, num_ms_combs: 3, mus: [0, 0, 2], ns: [1, 1, 2], ls: [2, 2, 0], ms_combs: [0, 0, 0, 1, -1, 0, 2, -2, 0], ctildes: [0, 0, 0, 0, 0, 0]}
    - {mu0: 0, rank: 3, ndensity: 2, num_ms_combs: 8, mus: [0, 0, 2], ns: [1, 1, 2], ls: [2, 2, 2], ms_combs: [-2, 1, 1, -2, 2, 0, -1, 1, 0, -1, 2, -1, 0, 0, 0, 0, 1, -1, 0, 2, -2, 1, 1, -2], ctildes: [0, 0, 0, 0, 0, 0, 0, 0, 0, 0, 0, 0, 0, 0, 0, 0]}
    - {mu0: 0, rank: 3, ndensity: 2, num_ms_combs: 1, mus: [0, 0, 2], ns: [1, 2, 1], ls: [0, 0, 0], ms_combs: [0, 0, 0], ctildes: [0, 0]}
    - {mu0: 0, rank: 3, ndensity: 2, num_ms_combs: 2, mus: [0, 0, 2], ns: [1, 2, 1], ls: [0, 1, 1], ms_combs: [0, 0, 0, 0, 1, -1], ctildes: [0, 0, 0, 0]}
    - {mu0: 0, rank: 3, ndensity: 2, num_ms_combs: 3, mus: [0, 0, 2], ns: [1, 2, 1], ls: [0, 2, 2], ms_combs: [0, 0, 0, 0, 1, -1, 0, 2, -2], ctildes: [0, 0, 0, 0, 0, 0]}
    - {mu0: 0, rank: 3, ndensity: 2, num_ms_combs: 2, mus: [0, 0, 2], ns: [1, 2, 1], ls: [1, 0, 1], ms_combs: [0, 0, 0, 1, 0, -1], ctildes: [0, 0, 0, 0]}
    - {mu0: 0, rank: 3, ndensity: 2, num_ms_combs: 2, mus: [0, 0, 2], ns: [1, 2, 1], ls: [1, 1, 0], ms_combs: [0, 0, 0, 1, -1, 0], ctildes: [0, 0, 0, 0]}
    - {mu0: 0, rank: 3, ndensity: 2, num_ms_combs: 5, mus: [0, 0, 2], ns: [1, 2, 1], ls: [1, 1, 2], ms_combs: [0, 0, 0, 0, 1, -1, 1, -1, 0, 1, 0, -1, 1, 1, -2], ctildes: [0, 0, 0, 0, 0, 0, 0, 0, 0, 0]}
    - {mu0: 0, rank: 3, ndensity: 2, num_ms_combs: 5, mus: [0, 0, 2], ns: [1, 2, 1], ls: [1, 2, 1], ms_combs: [0, 0, 0, 0, 1, -1, 1, -2, 1, 1, -1, 0, 1, 0, -1], ctildes: [0, 0, 0, 0, 0, 0, 0, 0, 0, 0]}
    - {mu0: 0, rank: 3, ndensity: 2, num_ms_combs: 3, mus: [0, 0, 2], ns: [1, 2, 1], ls: [2, 0, 2], ms_combs: [0, 0, 0, 1, 0, -1, 2, 0, -2], ctildes: [0, 0, 0, 0, 0, 0]}
    - {mu0: 0, rank: 3, ndensity: 2, num_ms_combs: 5, mus: [0, 0, 2], ns: [1, 2, 1], ls: [2, 1, 1], ms_combs: [0, 0, 0, 0, 1, -1, 1, -1, 0, 1, 0, -1, 2, -1, -1], ctildes: [0, 0, 0, 0, 0, 0, 0, 0, 0, 0]}
    - {mu0: 0, rank: 3, ndensity: 2, num_ms_combs: 3, mus: [0, 0, 2], ns: [1, 2, 1], ls: [2, 2, 0], ms_combs: [0, 0, 0, 1, -1, 0, 2, -2, 0], ctildes: [0, 0, 0, 0, 0, 0]}
    - {mu0: 0, rank: 3, ndensity: 2, num_ms_combs: 10, mus: [0, 0, 2], ns: [1, 2, 1], ls: [2, 2, 2], ms_combs: [0, 0, 0, 0, 1, -1, 0, 2, -2, 1, -2, 1, 1, -1, 0, 1, 0, -1, 1, 1, -2, 2, -2, 0, 2, -1, -1, 2, 0, -2], ctildes: [0, 0, 0, 0, 0, 0, 0, 0, 0, 0, 0, 0, 0, 0, 0, 0, 0, 0, 0, 0]}
    - {mu0: 0, rank: 3, ndensity: 2, num_ms_combs: 1, mus: [0, 0, 2], ns: [1, 2, 2], ls: [0, 0, 0], ms_combs: [0, 0, 0], ctildes: [0, 0]}
    - {mu0: 0, rank: 3, ndensity: 2, num_ms_combs: 2, mus: [0, 0, 2], ns: [1, 2, 2], ls: [0, 1, 1], ms_combs: [0, 0, 0, 0, 1, -1], ctildes: [0, 0, 0, 0]}
    - {mu0: 0, rank: 3, ndensity: 2, num_ms_combs: 3, mus: [0, 0, 2], ns: [1, 2, 2], ls: [0, 2, 2], ms_combs: [0, 0, 0, 0, 1, -1, 0, 2, -2], ctildes: [0, 0, 0, 0, 0, 0]}
    - {mu0: 0, rank: 3, ndensity: 2, num_ms_combs: 2, mus: [0, 0, 2], ns: [1, 2, 2], ls: [1, 0, 1], ms_combs: [0, 0, 0, 1, 0, -1], ctildes: [0, 0, 0, 0]}
    - {mu0: 0, rank: 3, ndensity: 2, num_ms_combs: 2, mus: [0, 0, 2], ns: [1, 2, 2], ls: [1, 1, 0], ms_combs: [0, 0, 0, 1, -1, 0], ctildes: [0, 0, 0, 0]}
    - {mu0: 0, rank: 3, ndensity: 2, num_ms_combs: 5, mus: [0, 0, 2], ns: [1, 2, 2], ls: [1, 1, 2], ms_combs: [0, 0, 0, 0, 1, -1, 1, -1, 0, 1, 0, -1, 1, 1, -2], ctildes: [0, 0, 0, 0, 0, 0, 0, 0, 0, 0]}
    - {mu0: 0, rank: 3, ndensity: 2, num_ms_combs: 5, mus: [0, 0, 2], ns: [1, 2, 2], ls: [1, 2, 1], ms_combs: [0, 0, 0, 0, 1, -1, 1, -2, 1, 1, -1, 0, 1, 0, -1], ctildes: [0, 0, 0, 0, 0, 0, 0, 0, 0, 0]}
    - {mu0: 0, rank: 3, ndensity: 2, num_ms_combs: 3, mus: [0, 0, 2], ns: [1, 2, 2], ls: [2, 0, 2], ms_combs: [0, 0, 0, 1, 0, -1, 2, 0, -2], ctildes: [0, 0, 0, 0, 0, 0]}
    - {mu0: 0, rank: 3, ndensity: 2, num_ms_combs: 5, mus: [0, 0, 2], ns: [1, 2, 2], ls: [2, 1, 1], ms_combs: [0, 0, 0, 0, 1, -1, 1, -1, 0, 1, 0, -1, 2, -1, -1], ctildes: [0, 0, 0, 0, 0, 0, 0, 0, 0, 0]}
    - {mu0: 0, rank: 3, ndensity: 2, num_ms_combs: 3, mus: [0, 0, 2], ns: [1, 2, 2], ls: [2, 2, 0], ms_combs: [0, 0, 0, 1, -1, 0, 2, -2, 0], ctildes: [0, 0, 0, 0, 0, 0]}
    - {mu0: 0, rank: 3, ndensity: 2, num_ms_combs: 10, mus: [0, 0, 2], ns: [1, 2, 2], ls: [2, 2, 2], ms_combs: [0, 0, 0, 0, 1, -1, 0, 2, -2, 1, -2, 1, 1, -1, 0, 1, 0, -1, 1, 1, -2, 2, -2, 0, 2, -1, -1, 2, 0, -2], ctildes: [0, 0, 0, 0, 0, 0, 0, 0, 0, 0, 0, 0, 0, 0, 0, 0, 0, 0, 0, 0]}
    - {mu0: 0, rank: 3, ndensity: 2, num_ms_combs: 1, mus: [0, 0, 2], ns: [2, 2, 1], ls: [0, 0, 0], ms_combs: [0, 0, 0], ctildes: [0, 0]}
    - {mu0: 0, rank: 3, ndensity: 2, num_ms_combs: 2, mus: [0, 0, 2], ns: [2, 2, 1], ls: [0, 1, 1], ms_combs: [0, 0, 0, 0, 1, -1], ctildes: [0, 0, 0, 0]}
    - {mu0: 0, rank: 3, ndensity: 2, num_ms_combs: 3, mus: [0, 0, 2], ns: [2, 2, 1], ls: [0, 2, 2], ms_combs: [0, 0, 0, 0, 1, -1, 0, 2, -2], ctildes: [0, 0, 0, 0, 0, 0]}
    - {mu0: 0, rank: 3, ndensity: 2, num_ms_combs: 2, mus: [0, 0, 2], ns: [2, 2, 1], ls: [1, 1, 0], ms_combs: [0, 0, 0, 1, -1, 0], ctildes: [0, 0, 0, 0]}
    - {mu0: 0, rank: 3, ndensity: 2, num_ms_combs: 4, mus: [0, 0, 2], ns: [2, 2, 1], ls: [1, 1, 2], ms_combs: [-1, 1, 0, 0, 0, 0, 0, 1, -1, 1, 1, -2], ctildes: [0, 0, 0, 0, 0, 0, 0, 0]}
    - {mu0: 0, rank: 3, ndensity: 2, num_ms_combs: 5, mus: [0, 0, 2], ns: [2, 2, 1], ls: [1, 2, 1], ms_combs: [0, 0, 0, 0, 1, -1, 1, -2, 1, 1, -1, 0, 1, 0, -1], ctildes: [0, 0, 0, 0, 0, 0, 0, 0, 0, 0]}
    - {mu0: 0, rank: 3, ndensity: 2, num_ms_combs: 3, mus: [0, 0, 2], ns: [2, 2, 1], ls: [2, 2, 0], ms_combs: [0, 0, 0, 1, -1, 0, 2, -2, 0], ctildes: [0, 0, 0, 0, 0, 0]}
    - {mu0: 0, rank: 3, ndensity: 2, num_ms_combs: 8, mus: [0, 0, 2], ns: [2, 2, 1], ls: [2, 2, 2], ms_combs: [-2, 1, 1, -2, 2, 0, -1, 1, 0, -1, 2, -1, 0, 0, 0, 0, 1, -1, 0, 2, -2, 1, 1, -2], ctildes: [0, 0, 0, 0, 0, 0, 0, 0, 0, 0, 0, 0, 0, 0, 0, 0]}
    - {mu0: 0, rank: 3, ndensity: 2, num_ms_combs: 1, mus: [0, 0, 2], ns: [2, 2, 2], ls: [0, 0, 0], ms_combs: [0, 0, 0], ctildes: [0, 0]}
    - {mu0: 0, rank: 3, ndensity: 2, num_ms_combs: 2, mus: [0, 0, 2], ns: [2, 2, 2], ls: [0, 1, 1], ms_combs: [0, 0, 0, 0, 1, -1], ctildes: [0, 0, 0, 0]}
    - {mu0: 0, rank: 3, ndensity: 2, num_ms_combs: 3, mus: [0, 0, 2], ns: [2, 2, 2], ls: [0, 2, 2], ms_combs: [0, 0, 0, 0, 1, -1, 0, 2, -2], ctildes: [0, 0, 0, 0, 0, 0]}
    - {mu0: 0, rank: 3, ndensity: 2, num_ms_combs: 2, mus: [0, 0, 2], ns: [2, 2, 2], ls: [1, 1, 0], ms_combs: [0, 0, 0, 1, -1, 0], ctildes: [0, 0, 0, 0]}
    - {mu0: 0, rank: 3, ndensity: 2, num_ms_combs: 4, mus: [0, 0, 2], ns: [2, 2, 2], ls: [1, 1, 2], ms_combs: [-1, 1, 0, 0, 0, 0, 0, 1, -1, 1, 1, -2], ctildes: [0, 0, 0, 0, 0, 0, 0, 0]}
    - {mu0: 0, rank: 3, ndensity: 2, num_ms_combs: 5, mus: [0, 0, 2], ns: [2, 2, 2], ls: [1, 2, 1], ms_combs: [0, 0, 0, 0, 1, -1, 1, -2, 1, 1, -1, 0, 1, 0, -1], ctildes: [0, 0, 0, 0, 0, 0, 0, 0, 0, 0]}
    - {mu0: 0, rank: 3, ndensity: 2, num_ms_combs: 3, mus: [0, 0, 2], ns: [2, 2, 2], ls: [2, 2, 0], ms_combs: [0, 0, 0, 1, -1, 0, 2, -2, 0], ctildes: [0, 0, 0, 0, 0, 0]}
    - {mu0: 0, rank: 3, ndensity: 2, num_ms_combs: 8, mus: [0, 0, 2], ns: [2, 2, 2], ls: [2, 2, 2], ms_combs: [-2, 1, 1, -2, 2, 0, -1, 1, 0, -1, 2, -1, 0, 0, 0, 0, 1, -1, 0, 2, -2, 1, 1, -2], ctildes: [0, 0, 0, 0, 0, 0, 0, 0, 0, 0, 0, 0, 0, 0, 0, 0]}
    - {mu0: 0, rank: 3, ndensity: 2, num_ms_combs: 1, mus: [0, 1, 1], ns: [1, 1, 1], ls: [0, 0, 0], ms_combs: [0, 0, 0], ctildes: [0, 0]}
    - {mu0: 0, rank: 3, ndensity: 2, num_ms_combs: 2, mus: [0, 1, 1], ns: [1, 1, 1], ls: [0, 1, 1], ms_combs: [0, 0, 0, 0, 1, -1], ctildes: [0, 0, 0, 0]}
    - {mu0: 0, rank: 3, ndensity: 2, num_ms_combs: 3, mus: [0, 1, 1], ns: [1, 1, 1], ls: [0, 2, 2], ms_combs: [0, 0, 0, 0, 1, -1, 0, 2, -2], ctildes: [0, 0, 0, 0, 0, 0]}
    - {mu0: 0, rank: 3, ndensity: 2, num_ms_combs: 2, mus: [0, 1, 1], ns: [1, 1, 1], ls: [1, 0, 1], ms_combs: [0, 0, 0, 1, 0, -1], ctildes: [0, 0, 0, 0]}
    - {mu0: 0, rank: 3, ndensity: 2, num_ms_combs: 5, mus: [0, 1, 1], ns: [1, 1, 1], ls: [1, 1, 2], ms_combs: [0, 0, 0, 0, 1, -1, 1, -1, 0, 1, 0, -1, 1, 1, -2], ctildes: [0, 0, 0, 0, 0, 0, 0, 0, 0, 0]}
    - {mu0: 0, rank: 3, ndensity: 2, num_ms_combs: 3, mus: [0, 1, 1], ns: [1, 1, 1], ls: [2, 0, 2], ms_combs: [0, 0, 0, 1, 0, -1, 2, 0, -2], ctildes: [0, 0, 0, 0, 0, 0]}
    - {mu0: 0, rank: 3, ndensity: 2, num_ms_combs: 4, mus: [0, 1, 1], ns: [1, 1, 1], ls: [2, 1, 1], ms_combs: [0, -1, 1, 0, 0, 0, 1, -1, 0, 2, -1, -1], ctildes: [0, 0, 0, 0, 0, 0, 0, 0]}
    - {mu0: 0, rank: 3, ndensity: 2, num_ms_combs: 7, mus: [0, 1, 1], ns: [1, 1, 1], ls: [2, 2, 2], ms_combs: [0, -2, 2, 0, -1, 1, 0, 0, 0, 1, -2, 1, 1, -1, 0, 2, -2, 0, 2, -1, -1], ctildes: [0, 0, 0, 0, 0, 0, 0, 0, 0, 0, 0, 0, 0, 0]}
    - {mu0: 0, rank: 3, ndensity: 2, num_ms_combs: 1, mus: [0, 1, 1], ns: [1, 1, 2], ls: [0, 0, 0], ms_combs: [0, 0, 0], ctildes: [0, 0]}
    - {mu0: 0, rank: 3, ndensity: 2, num_ms_combs: 2, mus: [0, 1, 1], ns: [1, 1, 2], ls: [0, 1, 1], ms_combs: [0, 0, 0, 0, 1, -1], ctildes: [0, 0, 0, 0]}
    - {mu0: 0, rank: 3, ndensity: 2, num_ms_combs: 3, mus: [0, 1, 1], ns: [1, 1, 2], ls: [0, 2, 2], ms_combs: [0, 0, 0, 0, 1, -1, 0, 2, -2], ctildes: [0, 0, 0, 0, 0, 0]}
    - {mu0: 0, rank: 3, ndensity: 2, num_ms_combs: 2, mus: [0, 1, 1], ns: [1, 1, 2], ls: [1, 0, 1], ms_combs: [0, 0, 0, 1, 0, -1], ctildes: [0, 0, 0, 0]}
    - {mu0: 0, rank: 3, ndensity: 2, num_ms_combs: 2, mus: [0, 1, 1], ns: [1, 1, 2], ls: [1, 1, 0], ms_combs: [0, 0, 0, 1, -1, 0], ctildes: [0, 0, 0, 0]}
    - {mu0: 0, rank: 3, ndensity: 2, num_ms_combs: 5, mus: [0, 1, 1], ns: [1, 1, 2], ls: [1, 1, 2], ms_combs: [0, 0, 0, 0, 1, -1, 1, -1, 0, 1, 0, -1, 1, 1, -2], ctildes: [0, 0, 0, 0, 0, 0, 0, 0, 0, 0]}
    - {mu0: 0, rank: 3, ndensity: 2, num_ms_combs: 5, mus: [0, 1, 1], ns: [1, 1, 2], ls: [1, 2, 1], ms_combs: [0, 0, 0, 0, 1, -1, 1, -2, 1, 1, -1, 0, 1, 0, -1], ctildes: [0, 0, 0, 0, 0, 0, 0, 0, 0, 0]}
    - {mu0: 0, rank: 3, ndensity: 2, num_ms_combs: 3, mus: [0, 1, 1], ns: [1, 1, 2], ls: [2, 0, 2], ms_combs: [0, 0, 0, 1, 0, -1, 2, 0, -2], ctildes: [0, 0, 0, 0, 0, 0]}
    - {mu0: 0, rank: 3, ndensity: 2, num_ms_combs: 5, mus: [0, 1, 1], ns: [1, 1, 2], ls: [2, 1, 1], ms_combs: [0, 0, 0, 0, 1, -1, 1, -1, 0, 1, 0, -1, 2, -1, -1], ctildes: [0, 0, 0, 0, 0, 0, 0, 0, 0, 0]}
    - {mu0: 0, rank: 3, ndensity: 2, num_ms_combs: 3, mus: [0, 1, 1], ns: [1, 1, 2], ls: [2, 2, 0], ms_combs: [0, 0, 0, 1, -1, 0, 2, -2, 0], ctildes: [0, 0, 0, 0, 0, 0]}
    - {mu0: 0, rank: 3, ndensity: 2, num_ms_combs: 10, mus: [0, 1, 1], ns: [1, 1, 2], ls: [2, 2, 2], ms_combs: [0, 0, 0, 0, 1, -1, 0, 2, -2, 1, -2, 1, 1, -1, 0, 1, 0, -1, 1, 1, -2, 2, -2, 0, 2, -1, -1, 2, 0, -2], ctildes: [0, 0, 0, 0, 0, 0, 0, 0, 0, 0, 0, 0, 0, 0, 0, 0, 0, 0, 0, 0]}
    - {mu0: 0, rank: 3, ndensity: 2, num_ms_combs: 1, mus: [0, 1, 1], ns: [1, 2, 2], ls: [0, 0, 0], ms_combs: [0, 0, 0], ctildes: [0, 0]}
    - {mu0: 0, rank: 3, ndensity: 2, num_ms_combs: 2, mus: [0, 1, 1], ns: [1, 2, 2], ls: [0, 1, 1], ms_combs: [0, 0, 0, 0, 1, -1], ctildes: [0, 0, 0, 0]}
    - {mu0: 0, rank: 3, ndensity: 2, num_ms_combs: 3, mus: [0, 1, 1], ns: [1, 2, 2], ls: [0, 2, 2], ms_combs: [0, 0, 0, 0, 1, -1, 0, 2, -2], ctildes: [0, 0, 0, 0, 0, 0]}
    - {mu0: 0, rank: 3, ndensity: 2, num_ms_combs: 2, mus: [0, 1, 1], ns: [1, 2, 2], ls: [1, 0, 1], ms_combs: [0, 0, 0, 1, 0, -1], ctildes: [0, 0, 0, 0]}
    - {mu0: 0, rank: 3, ndensity: 2, num_ms_combs: 5, mus: [0, 1, 1], ns: [1, 2, 2], ls: [1, 1, 2], ms_combs: [0, 0, 0, 0, 1, -1, 1, -1, 0, 1, 0, -1, 1, 1, -2], ctildes: [0, 0, 0, 0, 0, 0, 0, 0, 0, 0]}
    - {mu0: 0, rank: 3, ndensity: 2, num_ms_combs: 3, mus: [0, 1, 1], ns: [1, 2, 2], ls: [2, 0, 2], ms_combs: [0, 0, 0, 1, 0, -1, 2, 0, -2], ctildes: [0, 0, 0, 0, 0, 0]}
    - {mu0: 0, rank: 3, ndensity: 2, num_ms_combs: 4, mus: [0, 1, 1], ns: [1, 2, 2], ls: [2, 1, 1], ms_combs: [0, -1, 1, 0, 0, 0, 1, -1, 0, 2, -1, -1], ctildes: [0, 0, 0, 0, 0, 0, 0, 0]}
    - {mu0: 0, rank: 3, ndensity: 2, num_ms_combs: 7, mus: [0, 1, 1], ns: [1, 2, 2], ls: [2, 2, 2], ms_combs: [0, -2, 2, 0, -1, 1, 0, 0, 0, 1, -2, 1, 1, -1, 0, 2, -2, 0, 2, -1, -1], ctildes: [0, 0, 0, 0, 0, 0, 0, 0, 0, 0, 0, 0, 0, 0]}
    - {mu0: 0, rank: 3, ndensity: 2, num_ms_combs: 1, mus: [0, 1, 1], ns: [2, 1, 1], ls: [0, 0, 0], ms_combs: [0, 0, 0], ctildes: [0, 0]}
    - {mu0: 0, rank: 3, ndensity: 2, num_ms_combs: 2, mus: [0, 1, 1], ns: [2, 1, 1], ls: [0, 1, 1], ms_combs: [0, 0, 0, 0, 1, -1], ctildes: [0, 0, 0, 0]}
    - {mu0: 0, rank: 3, ndensity: 2, num_ms_combs: 3, mus: [0, 1, 1], ns: [2, 1, 1], ls: [0, 2, 2], ms_combs: [0, 0, 0, 0, 1, -1, 0, 2, -2], ctildes: [0, 0, 0, 0, 0, 0]}
    - {mu0: 0, rank: 3, ndensity: 2, num_ms_combs: 2, mus: [0, 1, 1], ns: [2, 1, 1], ls: [1, 0, 1], ms_combs: [0, 0, 0, 1, 0, -1], ctildes: [0, 0, 0, 0]}
    - {mu0: 0, rank: 3, ndensity: 2, num_ms_combs: 5, mus: [0, 1, 1], ns: [2, 1, 1], ls: [1, 1, 2], ms_combs: [0, 0, 0, 0, 1, -1, 1, -1, 0, 1, 0, -1, 1, 1, -2], ctildes: [0, 0, 0, 0, 0, 0, 0, 0, 0, 0]}
    - {mu0: 0, rank: 3, ndensity: 2, num_ms_combs: 3, mus: [0, 1, 1], ns: [2, 1, 1], ls: [2, 0, 2], ms_combs: [0, 0, 0, 1, 0, -1, 2, 0, -2], ctildes: [0, 0, 0, 0, 0, 0]}
    - {mu0: 0, rank: 3, ndensity: 2, num_ms_combs: 4, mus: [0, 1, 1], ns: [2, 1, 1], ls: [2, 1, 1], ms_combs: [0, -1, 1, 0, 0, 0, 1, -1, 0, 2, -1, -1], ctildes: [0, 0, 0, 0, 0, 0, 0, 0]}
    - {mu0: 0, rank: 3, ndensity: 2, num_ms_combs: 7, mus: [0, 1, 1], ns: [2, 1, 1], ls: [2, 2, 2], ms_combs: [0, -2, 2, 0, -1, 1, 0, 0, 0, 1, -2, 1, 1, -1, 0, 2, -2, 0, 2, -1, -1], ctildes: [0, 0, 0, 0, 0, 0, 0, 0, 0, 0, 0, 0, 0, 0]}
    - {mu0: 0, rank: 3, ndensity: 2, num_ms_combs: 1, mus: [0, 1, 1], ns: [2, 1, 2], ls: [0, 0, 0], ms_combs: [0, 0, 0], ctildes: [0, 0]}
    - {mu0: 0, rank: 3, ndensity: 2, num_ms_combs: 2, mus: [0, 1, 1], ns: [2, 1, 2], ls: [0, 1, 1], ms_combs: [0, 0, 0, 0, 1, -1], ctildes: [0, 0, 0, 0]}
    - {mu0: 0, rank: 3, ndensity: 2, num_ms_combs: 3, mus: [0, 1, 1], ns: [2, 1, 2], ls: [0, 2, 2], ms_combs: [0, 0, 0, 0, 1, -1, 0, 2, -2], ctildes: [0, 0, 0, 0, 0, 0]}
    - {mu0: 0, rank: 3, ndensity: 2, num_ms_combs: 2, mus: [0, 1, 1], ns: [2, 1, 2], ls: [1, 0, 1], ms_combs: [0, 0, 0, 1, 0, -1], ctildes: [0, 0, 0, 0]}
    - {mu0: 0, rank: 3, ndensity: 2, num_ms_combs: 2, mus: [0, 1, 1], ns: [2, 1, 2], ls: [1, 1, 0], ms_combs: [0, 0, 0, 1, -1, 0], ctildes: [0, 0, 0, 0]}
    - {mu0: 0, rank: 3, ndensity: 2, num_ms_combs: 5, mus: [0, 1, 1], ns: [2, 1, 2], ls: [1, 1, 2], ms_combs: [0, 0, 0, 0, 1, -1, 1, -1, 0, 1, 0, -1, 1, 1, -2], ctildes: [0, 0, 0, 0, 0, 0, 0, 0, 0, 0]}
    - {mu0: 0, rank: 3, ndensity: 2, num_ms_combs: 5, mus: [0, 1, 1], ns: [2, 1, 2], ls: [1, 2, 1], ms_combs: [0, 0, 0, 0, 1, -1, 1, -2, 1, 1, -1, 0, 1, 0, -1], ctildes: [0, 0, 0, 0, 0, 0, 0, 0, 0, 0]}
    - {mu0: 0, rank: 3, ndensity: 2, num_ms_combs: 3, mus: [0, 1, 1], ns: [2, 1, 2], ls: [2, 0, 2], ms_combs: [0, 0, 0, 1, 0, -1, 2, 0, -2], ctildes: [0, 0, 0, 0, 0, 0]}
    - {mu0: 0, rank: 3, ndensity: 2, num_ms_combs: 5, mus: [0, 1, 1], ns: [2, 1, 2], ls: [2, 1, 1], ms_combs: [0, 0, 0, 0, 1, -1, 1, -1, 0, 1, 0, -1, 2, -1, -1], ctildes: [0, 0, 0, 0, 0, 0, 0, 0, 0, 0]}
    - {mu0: 0, rank: 3, ndensity: 2, num_ms_combs: 3, mus: [0, 1, 1], ns: [2, 1, 2], ls: [2, 2, 0], ms_combs: [0, 0, 0, 1, -1, 0, 2, -2, 0], ctildes: [0, 0, 0, 0, 0, 0]}
    - {mu0: 0, rank: 3, ndensity: 2, num_ms_combs: 10, mus: [0, 1, 1], ns: [2, 1, 2], ls: [2, 2, 2], ms_combs: [0, 0, 0, 0, 1, -1, 0, 2, -2, 1, -2, 1, 1, -1, 0, 1, 0, -1, 1, 1, -2, 2, -2, 0, 2, -1, -1, 2, 0, -2], ctildes: [0, 0, 0, 0, 0, 0, 0, 0, 0, 0, 0, 0, 0, 0, 0, 0, 0, 0, 0, 0]}
    - {mu0: 0, rank: 3, ndensity: 2, num_ms_combs: 1, mus: [0, 1, 1], ns: [2, 2, 2], ls: [0, 0, 0], ms_combs: [0, 0, 0], ctildes: [0, 0]}
    - {mu0: 0, rank: 3, ndensity: 2, num_ms_combs: 2, mus: [0, 1, 1], ns: [2, 2, 2], ls: [0, 1, 1], ms_combs: [0, 0, 0, 0, 1, -1], ctildes: [0, 0, 0, 0]}
    - {mu0: 0, rank: 3, ndensity: 2, num_ms_combs: 3, mus: [0, 1, 1], ns: [2, 2, 2], ls: [0, 2, 2], ms_combs: [0, 0, 0, 0, 1, -1, 0, 2, -2], ctildes: [0, 0, 0, 0, 0, 0]}
    - {mu0: 0, rank: 3, ndensity: 2, num_ms_combs: 2, mus: [0, 1, 1], ns: [2, 2, 2], ls: [1, 0, 1], ms_combs: [0, 0, 0, 1, 0, -1], ctildes: [0, 0, 0, 0]}
    - {mu0: 0, rank: 3, ndensity: 2, num_ms_combs: 5, mus: [0, 1, 1], ns: [2, 2, 2], ls: [1, 1, 2], ms_combs: [0, 0, 0, 0, 1, -1, 1, -1, 0, 1, 0, -1, 1, 1, -2], ctildes: [0, 0, 0, 0, 0, 0, 0, 0, 0, 0]}
    - {mu0: 0, rank: 3, ndensity: 2, num_ms_combs: 3, mus: [0, 1, 1], ns: [2, 2, 2], ls: [2, 0, 2], ms_combs: [0, 0, 0, 1, 0, -1, 2, 0, -2], ctildes: [0, 0, 0, 0, 0, 0]}
    - {mu0: 0, rank: 3, ndensity: 2, num_ms_combs: 4, mus: [0, 1, 1], ns: [2, 2, 2], ls: [2, 1, 1], ms_combs: [0, -1, 1, 0, 0, 0, 1, -1, 0, 2, -1, -1], ctildes: [0, 0, 0, 0, 0, 0, 0, 0]}
    - {mu0: 0, rank: 3, ndensity: 2, num_ms_combs: 7, mus: [0, 1, 1], ns: [2, 2, 2], ls: [2, 2, 2], ms_combs: [0, -2, 2, 0, -1, 1, 0, 0, 0, 1, -2, 1, 1, -1, 0, 2, -2, 0, 2, -1, -1], ctildes: [0, 0, 0, 0, 0, 0, 0, 0, 0, 0, 0, 0, 0, 0]}
    - {mu0: 0, rank: 3, ndensity: 2, num_ms_combs: 1, mus: [0, 1, 2], ns: [1, 1, 1], ls: [0, 0, 0], ms_combs: [0, 0, 0], ctildes: [0, 0]}
    - {mu0: 0, rank: 3, ndensity: 2, num_ms_combs: 2, mus: [0, 1, 2], ns: [1, 1, 1], ls: [0, 1, 1], ms_combs: [0, 0, 0, 0, 1, -1], ctildes: [0, 0, 0, 0]}
    - {mu0: 0, rank: 3, ndensity: 2, num_ms_combs: 3, mus: [0, 1, 2], ns: [1, 1, 1], ls: [0, 2, 2], ms_combs: [0, 0, 0, 0, 1, -1, 0, 2, -2], ctildes: [0, 0, 0, 0, 0, 0]}
    - {mu0: 0, rank: 3, ndensity: 2, num_ms_combs: 2, mus: [0, 1, 2], ns: [1, 1, 1], ls: [1, 0, 1], ms_combs: [0, 0, 0, 1, 0, -1], ctildes: [0, 0, 0, 0]}
    - {mu0: 0, rank: 3, ndensity: 2, num_ms_combs: 2, mus: [0, 1, 2], ns: [1, 1, 1], ls: [1, 1, 0], ms_combs: [0, 0, 0, 1, -1, 0], ctildes: [0, 0, 0, 0]}
    - {mu0: 0, rank: 3, ndensity: 2, num_ms_combs: 5, mus: [0, 1, 2], ns: [1, 1, 1], ls: [1, 1, 2], ms_combs: [0, 0, 0, 0, 1, -1, 1, -1, 0, 1, 0, -1, 1, 1, -2], ctildes: [0, 0, 0, 0, 0, 0, 0, 0, 0, 0]}
    - {mu0: 0, rank: 3, ndensity: 2, num_ms_combs: 5, mus: [0, 1, 2], ns: [1, 1, 1], ls: [1, 2, 1], ms_combs: [0, 0, 0, 0, 1, -1, 1, -2, 1, 1, -1, 0, 1, 0, -1], ctildes: [0, 0, 0, 0, 0, 0, 0, 0, 0, 0]}
    - {mu0: 0, rank: 3, ndensity: 2, num_ms_combs: 3, mus: [0, 1, 2], ns: [1, 1, 1], ls: [2, 0, 2], ms_combs: [0, 0, 0, 1, 0, -1, 2, 0, -2], ctildes: [0, 0, 0, 0, 0, 0]}
    - {mu0: 0, rank: 3, ndensity: 2, num_ms_combs: 5, mus: [0, 1, 2], ns: [1, 1, 1], ls: [2, 1, 1], ms_combs: [0, 0, 0, 0, 1, -1, 1, -1, 0, 1, 0, -1, 2, -1, -1], ctildes: [0, 0, 0, 0, 0, 0, 0, 0, 0, 0]}
    - {mu0: 0, rank: 3, ndensity: 2, num_ms_combs: 3, mus: [0, 1, 2], ns: [1, 1, 1], ls: [2, 2, 0], ms_combs: [0, 0, 0, 1, -1, 0, 2, -2, 0], ctildes: [0, 0, 0, 0, 0, 0]}
    - {mu0: 0, rank: 3, ndensity: 2, num_ms_combs: 10, mus: [0, 1, 2], ns: [1, 1, 1], ls: [2, 2, 2], ms_combs: [0, 0, 0, 0, 1, -1, 0, 2, -2, 1, -2, 1, 1, -1, 0, 1, 0, -1, 1, 1, -2, 2, -2, 0, 2, -1, -1, 2, 0, -2], ctildes: [0, 0, 0, 0, 0, 0, 0, 0, 0, 0, 0, 0, 0, 0, 0, 0, 0, 0, 0, 0]}
    - {mu0: 0, rank: 3, ndensity: 2, num_ms_combs: 1, mus: [0, 1, 2], ns: [1, 1, 2], ls: [0, 0, 0], ms_combs: [0, 0, 0], ctildes: [0, 0]}
    - {mu0: 0, rank: 3, ndensity: 2, num_ms_combs: 2, mus: [0, 1, 2], ns: [1, 1, 2], ls: [0, 1, 1], ms_combs: [0, 0, 0, 0, 1, -1], ctildes: [0, 0, 0, 0]}
    - {mu0: 0, rank: 3, ndensity: 2, num_ms_combs: 3, mus: [0, 1, 2], ns: [1, 1, 2], ls: [0, 2, 2], ms_combs: [0, 0, 0, 0, 1, -1, 0, 2, -2], ctildes: [0, 0, 0, 0, 0, 0]}
    - {mu0: 0, rank: 3, ndensity: 2, num_ms_combs: 2, mus: [0, 1, 2], ns: [1, 1, 2], ls: [1, 0, 1], ms_combs: [0, 0, 0, 1, 0, -1], ctildes: [0, 0, 0, 0]}
    - {mu0: 0, rank: 3, ndensity: 2, num_ms_combs: 2, mus: [0, 1, 2], ns: [1, 1, 2], ls: [1, 1, 0], ms_combs: [0, 0, 0, 1, -1, 0], ctildes: [0, 0, 0, 0]}
    - {mu0: 0, rank: 3, ndensity: 2, num_ms_combs: 5, mus: [0, 1, 2], ns: [1, 1, 2], ls: [1, 1, 2], ms_combs: [0, 0, 0, 0, 1, -1, 1, -1, 0, 1, 0, -1, 1, 1, -2], ctildes: [0, 0, 0, 0, 0, 0, 0, 0, 0, 0]}
    - {mu0: 0, rank: 3, ndensity: 2, num_ms_combs: 5, mus: [0, 1, 2], ns: [1, 1, 2], ls: [1, 2, 1], ms_combs: [0, 0, 0, 0, 1, -1, 1, -2, 1, 1, -1, 0, 1, 0, -1], ctildes: [0, 0, 0, 0, 0, 0, 0, 0, 0, 0]}
    - {mu0: 0, rank: 3, ndensity: 2, num_ms_combs: 3, mus: [0, 1, 2], ns: [1, 1, 2], ls: [2, 0, 2], ms_combs: [0, 0, 0, 1, 0, -1, 2, 0, -2], ctildes: [0, 0, 0, 0, 0, 0]}
    - {mu0: 0, rank: 3, ndensity: 2, num_ms_combs: 5, mus: [0, 1, 2], ns: [1, 1, 2], ls: [2, 1, 1], ms_combs: [0, 0, 0, 0, 1, -1, 1, -1, 0, 1, 0, -1, 2, -1, -1], ctildes: [0, 0, 0, 0, 0, 0, 0, 0, 0, 0]}
    - {mu0: 0, rank: 3, ndensity: 2, num_ms_combs: 3, mus: [0, 1, 2], ns: [1, 1, 2], ls: [2, 2, 0], ms_combs: [0, 0, 0, 1, -1, 0, 2, -2, 0], ctildes: [0, 0, 0, 0, 0, 0]}
    - {mu0: 0, rank: 3, ndensity: 2, num_ms_combs: 10, mus: [0, 1, 2], ns: [1, 1, 2], ls: [2, 2, 2], ms_combs: [0, 0, 0, 0, 1, -1, 0, 2, -2, 1, -2, 1, 1, -1, 0, 1, 0, -1, 1, 1, -2, 2, -2, 0, 2, -1, -1, 2, 0, -2], ctildes: [0, 0, 0, 0, 0, 0, 0, 0, 0, 0, 0, 0, 0, 0, 0, 0, 0, 0, 0, 0]}
    - {mu0: 0, rank: 3, ndensity: 2, num_ms_combs: 1, mus: [0, 1, 2], ns: [1, 2, 1], ls: [0, 0, 0], ms_combs: [0, 0, 0], ctildes: [0, 0]}
    - {mu0: 0, rank: 3, ndensity: 2, num_ms_combs: 2, mus: [0, 1, 2], ns: [1, 2, 1], ls: [0, 1, 1], ms_combs: [0, 0, 0, 0, 1, -1], ctildes: [0, 0, 0, 0]}
    - {mu0: 0, rank: 3, ndensity: 2, num_ms_combs: 3, mus: [0, 1, 2], ns: [1, 2, 1], ls: [0, 2, 2], ms_combs: [0, 0, 0, 0, 1, -1, 0, 2, -2], ctildes: [0, 0, 0, 0, 0, 0]}
    - {mu0: 0, rank: 3, ndensity: 2, num_ms_combs: 2, mus: [0, 1, 2], ns: [1, 2, 1], ls: [1, 0, 1], ms_combs: [0, 0, 0, 1, 0, -1], ctildes: [0, 0, 0, 0]}
    - {mu0: 0, rank: 3, ndensity: 2, num_ms_combs: 2, mus: [0, 1, 2], ns: [1, 2, 1], ls: [1, 1, 0], ms_combs: [0, 0, 0, 1, -1, 0], ctildes: [0, 0, 0, 0]}
    - {mu0: 0, rank: 3, ndensity: 2, num_ms_combs: 5, mus: [0, 1, 2], ns: [1, 2, 1], ls: [1, 1, 2], ms_combs: [0, 0, 0, 0, 1, -1, 1, -1, 0, 1, 0, -1, 1, 1, -2], ctildes: [0, 0, 0, 0, 0, 0, 0, 0, 0, 0]}
    - {mu0: 0, rank: 3, ndensity: 2, num_ms_combs: 5, mus: [0, 1, 2], ns: [1, 2, 1], ls: [1, 2, 1], ms_combs: [0, 0, 0, 0, 1, -1, 1, -2, 1, 1, -1, 0, 1, 0, -1], ctildes: [0, 0, 0, 0, 0, 0, 0, 0, 0, 0]}
    - {mu0: 0, rank: 3, ndensity: 2, num_ms_combs: 3, mus: [0, 1, 2], ns: [1, 2, 1], ls: [2, 0, 2], ms_combs: [0, 0, 0, 1, 0, -1, 2, 0, -2], ctildes: [0, 0, 0, 0, 0, 0]}
    - {mu0: 0, rank: 3, ndensity: 2, num_ms_combs: 5, mus: [0, 1, 2], ns: [1, 2, 1], ls: [2, 1, 1], ms_combs: [0, 0, 0, 0, 1, -1, 1, -1, 0, 1, 0, -1, 2, -1, -1], ctildes: [0, 0, 0, 0, 0, 0, 0, 0, 0, 0]}
    - {mu0: 0, rank: 3, ndensity: 2, num_ms_combs: 3, mus: [0, 1, 2], ns: [1, 2, 1], ls: [2, 2, 0], ms_combs: [0, 0, 0, 1, -1, 0, 2, -2, 0], ctildes: [0, 0, 0, 0, 0, 0]}
    - {mu0: 0, rank: 3, ndensity: 2, num_ms_combs: 10, mus: [0, 1, 2], ns: [1, 2, 1], ls: [2, 2, 2], ms_combs: [0, 0, 0, 0, 1, -1, 0, 2, -2, 1, -2, 1, 1, -1, 0, 1, 0, -1, 1, 1, -2, 2, -2, 0, 2, -1, -1, 2, 0, -2], ctildes: [0, 0, 0, 0, 0, 0, 0, 0, 0, 0, 0, 0, 0, 0, 0, 0, 0, 0, 0, 0]}
    - {mu0: 0, rank: 3, ndensity: 2, num_ms_combs: 1, mus: [0, 1, 2], ns: [1, 2, 2], ls: [0, 0, 0], ms_combs: [0, 0, 0], ctildes: [0, 0]}
    - {mu0: 0, rank: 3, ndensity: 2, num_ms_combs: 2, mus: [0, 1, 2], ns: [1, 2, 2], ls: [0, 1, 1], ms_combs: [0, 0, 0, 0, 1, -1], ctildes: [0, 0, 0, 0]}
    - {mu0: 0, rank: 3, ndensity: 2, num_ms_combs: 3, mus: [0, 1, 2], ns: [1, 2, 2], ls: [0, 2, 2], ms_combs: [0, 0, 0, 0, 1, -1, 0, 2, -2], ctildes: [0, 0, 0, 0, 0, 0]}
    - {mu0: 0, rank: 3, ndensity: 2, num_ms_combs: 2, mus: [0, 1, 2], ns: [1, 2, 2], ls: [1, 0, 1], ms_combs: [0, 0, 0, 1, 0, -1], ctildes: [0, 0, 0, 0]}
    - {mu0: 0, rank: 3, ndensity: 2, num_ms_combs: 2, mus: [0, 1, 2], ns: [1, 2, 2], ls: [1, 1, 0], ms_combs: [0, 0, 0, 1, -1, 0], ctildes: [0, 0, 0, 0]}
    - {mu0: 0, rank: 3, ndensity: 2, num_ms_combs: 5, mus: [0, 1, 2], ns: [1, 2, 2], ls: [1, 1, 2], ms_combs: [0, 0, 0, 0, 1, -1, 1, -1, 0, 1, 0, -1, 1, 1, -2], ctildes: [0, 0, 0, 0, 0, 0, 0, 0, 0, 0]}
    - {mu0: 0, rank: 3, ndensity: 2, num_ms_combs: 5, mus: [0, 1, 2], ns: [1, 2, 2], ls: [1, 2, 1], ms_combs: [0, 0, 0, 0, 1, -1, 1, -2, 1, 1, -1, 0, 1, 0, -1], ctildes: [0, 0, 0, 0, 0, 0, 0, 0, 0, 0]}
    - {mu0: 0, rank: 3, ndensity: 2, num_ms_combs: 3, mus: [0, 1, 2], ns: [1, 2, 2], ls: [2, 0, 2], ms_combs: [0, 0, 0, 1, 0, -1, 2, 0, -2], ctildes: [0, 0, 0, 0, 0, 0]}
    - {mu0: 0, rank: 3, ndensity: 2, num_ms_combs: 5, mus: [0, 1, 2], ns: [1, 2, 2], ls: [2, 1, 1], ms_combs: [0, 0, 0, 0, 1, -1, 1, -1, 0, 1, 0, -1, 2, -1, -1], ctildes: [0, 0, 0, 0, 0, 0, 0, 0, 0, 0]}
    - {mu0: 0, rank: 3, ndensity: 2, num_ms_combs: 3, mus: [0, 1, 2], ns: [1, 2, 2], ls: [2, 2, 0], ms_combs: [0, 0, 0, 1, -1, 0, 2, -2, 0], ctildes: [0, 0, 0, 0, 0, 0]}
    - {mu0: 0, rank: 3, ndensity: 2, num_ms_combs: 10, mus: [0, 1, 2], ns: [1, 2, 2], ls: [2, 2, 2], ms_combs: [0, 0, 0, 0, 1, -1, 0, 2, -2, 1, -2, 1, 1, -1, 0, 1, 0, -1, 1, 1, -2, 2, -2, 0, 2, -1, -1, 2, 0, -2], ctildes: [0, 0, 0, 0, 0, 0, 0, 0, 0, 0, 0, 0, 0, 0, 0, 0, 0, 0, 0, 0]}
    - {mu0: 0, rank: 3, ndensity: 2, num_ms_combs: 1, mus: [0, 1, 2], ns: [2, 1, 1], ls: [0, 0, 0], ms_combs: [0, 0, 0], ctildes: [0, 0]}
    - {mu0: 0, rank: 3, ndensity: 2, num_ms_combs: 2, mus: [0, 1, 2], ns: [2, 1, 1], ls: [0, 1, 1], ms_combs: [0, 0, 0, 0, 1, -1], ctildes: [0, 0, 0, 0]}
    - {mu0: 0, rank: 3, ndensity: 2, num_ms_combs: 3, mus: [0, 1, 2], ns: [2, 1, 1], ls: [0, 2, 2], ms_combs: [0, 0, 0, 0, 1, -1, 0, 2, -2], ctildes: [0, 0, 0, 0, 0, 0]}
    - {mu0: 0, rank: 3, ndensity: 2, num_ms_combs: 2, mus: [0, 1, 2], ns: [2, 1, 1], ls: [1, 0, 1], ms_combs: [0, 0, 0, 1, 0, -1], ctildes: [0, 0, 0, 0]}
    - {mu0: 0, rank: 3, ndensity: 2, num_ms_combs: 2, mus: [0, 1, 2], ns: [2, 1, 1], ls: [1, 1, 0], ms_combs: [0, 0, 0, 1, -1, 0], ctildes: [0, 0, 0, 0]}
    - {mu0: 0, rank: 3, ndensity: 2, num_ms_combs: 5, mus: [0, 1, 2], ns: [2, 1, 1], ls: [1, 1, 2], ms_combs: [0, 0, 0, 0, 1, -1, 1, -1, 0, 1, 0, -1, 1, 1, -2], ctildes: [0, 0, 0, 0, 0, 0, 0, 0, 0, 0]}
    - {mu0: 0, rank: 3, ndensity: 2, num_ms_combs: 5, mus: [0, 1, 2], ns: [2, 1, 1], ls: [1, 2, 1], ms_combs: [0, 0, 0, 0, 1, -1, 1, -2, 1, 1, -1, 0, 1, 0, -1], ctildes: [0, 0, 0, 0, 0, 0, 0, 0, 0, 0]}
