MTP
version = 1.1.0
potential_name = MTP-level6
scaling = 2.179464150500697e+00
species_count = 3
potential_tag = 
radial_basis_type = RBChebyshev
	min_dist = 6.681822507549159e-01
	max_dist = 5.000000000000000e+00
	radial_basis_size = 8
	radial_funcs_count = 2
	radial_coeffs
		0-0
			{1.630821614653911e-01, 3.328877850215325e-01, 2.500402392520070e-01, 2.130555988193746e-01, 1.380187072397099e-01, 1.037129816988269e-01, 4.825155253792640e-02, 2.114212841665762e-02}
			{1.474362901027634e-01, 3.138239667080355e-01, 2.481309235613804e-01, 2.287184091134731e-01, 1.576973407767125e-01, 1.209441857422272e-01, 5.813926989495997e-02, 2.539747171039722e-02}
		0-1
			{-2.626682517750150e-02, -4.886961778010641e-02, -3.965141570577885e-02, -2.581178267856908e-02, -1.078243278692157e-02, 1.194209694188535e-03, 5.821415094276683e-03, 3.720804526771101e-03}
			{-6.938514617369630e-02, -1.233690537838378e-01, -1.007869297578727e-01, -6.909585485670361e-02, -3.688415161642117e-02, -1.203185683405789e-02, 3.320371924474019e-03, 4.356481807155459e-03}
		0-2
			{1.554432873194810e-02, 1.367436022478772e-02, -3.345972529182034e-02, -1.286298109618830e-02, 2.083869388383167e-02, 4.901320914474493e-02, 3.860126193953130e-02, 2.009134320588363e-02}
			{1.103886792940945e-01, 5.115483799779311e-03, -1.632929809542837e-01, 8.287978714137703e-02, 1.427608845695710e-01, -1.107890051664877e-01, -1.959519840371861e-01, -6.858045159045779e-02}
		1-0
			{4.495533333604806e-02, 8.277580797562659e-02, 7.112064892253193e-02, 6.292703050665156e-02, 5.396158820820032e-02, 3.569554454930688e-02, 1.676750580355396e-02, 3.820626752739963e-03}
			{1.481087892596388e-02, 2.900606250857040e-02, 2.478509467850895e-02, 3.252169992132737e-02, 4.125927053234445e-02, 3.019600796652418e-02, 1.624696629716993e-02, 3.469433514266828e-03}
		1-1
			{-7.167011698373697e-02, 4.194057166156784e-01, 2.773848438206695e-01, -1.592036782231718e-01, 5.057584188650499e-01, -1.847972358512932e-01, 1.622497335420670e-01, -1.091868827146390e-02}
			{-6.746395702211943e-03, -3.313126783555458e-01, -9.024499152938634e-02, 2.565289157279091e-01, -2.002158905110724e-01, 4.117607508241569e-01, -9.867171455954085e-02, 1.339197475136313e-01}
		1-2
			{3.757179719841047e-05, 4.184771211773549e-05, -4.727685913674991e-05, 3.113346000036941e-08, 3.660547618251752e-05, -1.848454083126231e-05, -4.395536073533717e-05, 2.663623763802965e-05}
			{7.087090722675824e-05, 8.003747553736981e-05, -9.174955601559148e-05, 9.258231061671846e-07, 6.843920915441478e-05, -3.369369738630659e-05, -7.866187346062952e-05, 4.644342540446569e-05}
		2-0
			{1.283328307431777e-01, 2.769241625572922e-02, -1.851374273774555e-01, 2.307729883795437e-03, 1.714042196257095e-01, 5.705671880502903e-02, -5.340791931481913e-02, -3.288495495227810e-02}
			{1.521611701573562e-01, 2.041103080237605e-02, -2.188992150587609e-01, 4.914169006811754e-02, 1.969619361090368e-01, -2.221532395294244e-02, -1.440374109721352e-01, -6.119549080769407e-02}
		2-1
			{5.674710800948061e-05, -2.953308796145077e-05, -5.511354234174050e-05, -3.329020970127753e-05, 5.970182459299141e-05, 6.386062998447277e-05, 9.027170175285926e-05, -3.226055670649545e-05}
			{1.036836958753043e-04, -5.337013892197789e-05, -1.054785398833529e-04, -5.920974641838060e-05, 1.091088221138198e-04, 1.210792711586568e-04, 1.691792034135678e-04, -6.487406842625246e-05}
		2-2
			{-2.445062684205989e-05, -2.783438517152354e-05, 1.450621438441075e-05, 4.369081355296922e-05, 3.934258527670386e-05, -5.366596448376240e-05, 7.763605448196053e-05, 2.357466725285208e-05}
			{-4.474181178433993e-05, -4.965912540880969e-05, 2.787263623788444e-05, 8.515522903610274e-05, 7.152688578125450e-05, -9.880641939528645e-05, 1.421747740333470e-04, 4.732969946284696e-05}
alpha_moments_count = 8
alpha_index_basic_count = 5
alpha_index_basic = {{0, 0, 0, 0}, {0, 1, 0, 0}, {0, 0, 1, 0}, {0, 0, 0, 1}, {1, 0, 0, 0}}
alpha_index_times_count = 5
alpha_index_times = {{0, 0, 1, 5}, {1, 1, 1, 6}, {2, 2, 1, 6}, {3, 3, 1, 6}, {0, 5, 1, 7}}
alpha_scalar_moments = 5
alpha_moment_mapping = {0, 4, 5, 6, 7}
species_coeffs = {-1.565200266628480e+01, -4.397142091548345e+02, -1.488156378905302e+02}
moment_coeffs = {-2.384534398004824e+01, 1.595363151158236e+01, -3.143001000727304e+01, 1.267972617020276e+02, -5.522033613800121e+02}